digraph Tree {
node [shape=box, style="filled, rounded", color="black", fontname=helvetica] ;
edge [fontname=helvetica] ;
0 [label="super_dist_Missing <= 0.5\ngini = 0.5\nsamples = 24222\nvalue = [12111, 12111]\nclass = 0", fillcolor="#ffffff"] ;
1 [label="super_dist_ISC <= 0.5\ngini = 0.488\nsamples = 16148\nvalue = [6844, 9304]\nclass = 1", fillcolor="#cbe5f8"] ;
0 -> 1 [labeldistance=2.5, labelangle=45, headlabel="True"] ;
2 [label="super_dist_Interstate Compact <= 0.5\ngini = 0.486\nsamples = 15905\nvalue = [6627, 9278]\nclass = 1", fillcolor="#c6e3f8"] ;
1 -> 2 ;
3 [label="age_number <= 35.0\ngini = 0.484\nsamples = 15689\nvalue = [6438, 9251]\nclass = 1", fillcolor="#c3e1f7"] ;
2 -> 3 ;
4 [label="super_dist_7JD <= 0.5\ngini = 0.463\nsamples = 8627\nvalue = [3144, 5483]\nclass = 1", fillcolor="#abd5f4"] ;
3 -> 4 ;
5 [label="crime_subtype_Murder/Manslaughter <= 0.5\ngini = 0.455\nsamples = 7888\nvalue = [2757, 5131]\nclass = 1", fillcolor="#a3d2f3"] ;
4 -> 5 ;
6 [label="release_type_Parole <= 0.5\ngini = 0.452\nsamples = 7818\nvalue = [2701, 5117]\nclass = 1", fillcolor="#a2d1f3"] ;
5 -> 6 ;
7 [label="release_type_Parole Granted <= 0.5\ngini = 0.427\nsamples = 3652\nvalue = [1130, 2522]\nclass = 1", fillcolor="#92c9f1"] ;
6 -> 7 ;
8 [label="release_type_Discharged - Expiration of Sentence <= 0.5\ngini = 0.332\nsamples = 1148\nvalue = [241, 907]\nclass = 1", fillcolor="#6eb7ec"] ;
7 -> 8 ;
9 [label="release_type_Paroled w/Immediate Discharge <= 0.5\ngini = 0.28\nsamples = 873\nvalue = [147, 726]\nclass = 1", fillcolor="#61b1ea"] ;
8 -> 9 ;
10 [label="release_type_Paroled to Detainer - U.S. Marshall <= 0.5\ngini = 0.252\nsamples = 810\nvalue = [120, 690]\nclass = 1", fillcolor="#5baeea"] ;
9 -> 10 ;
11 [label="release_type_Paroled to Detainer - INS <= 0.5\ngini = 0.245\nsamples = 804\nvalue = [115, 689]\nclass = 1", fillcolor="#5aade9"] ;
10 -> 11 ;
12 [label="super_dist_6JD <= 0.5\ngini = 0.238\nsamples = 796\nvalue = [110, 686]\nclass = 1", fillcolor="#59ade9"] ;
11 -> 12 ;
13 [label="release_type_Paroled to Detainer - Out of State <= 0.5\ngini = 0.22\nsamples = 748\nvalue = [94, 654]\nclass = 1", fillcolor="#55abe9"] ;
12 -> 13 ;
14 [label="crime_subtype_Sex <= 0.5\ngini = 0.207\nsamples = 725\nvalue = [85, 640]\nclass = 1", fillcolor="#53aae8"] ;
13 -> 14 ;
15 [label="release_type_Paroled to Detainer - Iowa <= 0.5\ngini = 0.146\nsamples = 442\nvalue = [35, 407]\nclass = 1", fillcolor="#4aa5e7"] ;
14 -> 15 ;
16 [label="crime_type_Other <= 0.5\ngini = 0.117\nsamples = 416\nvalue = [26, 390]\nclass = 1", fillcolor="#46a4e7"] ;
15 -> 16 ;
17 [label="release_type_Released to Special Sentence <= 0.5\ngini = 0.027\nsamples = 290\nvalue = [4, 286]\nclass = 1", fillcolor="#3c9ee5"] ;
16 -> 17 ;
18 [label="gini = 0.0\nsamples = 275\nvalue = [0, 275]\nclass = 1", fillcolor="#399de5"] ;
17 -> 18 ;
19 [label="crime_class_D Felony <= 0.5\ngini = 0.391\nsamples = 15\nvalue = [4, 11]\nclass = 1", fillcolor="#81c1ee"] ;
17 -> 19 ;
20 [label="super_dist_1JD <= 0.5\ngini = 0.49\nsamples = 7\nvalue = [4, 3]\nclass = 0", fillcolor="#f8e0ce"] ;
19 -> 20 ;
21 [label="super_dist_5JD <= 0.5\ngini = 0.444\nsamples = 6\nvalue = [4, 2]\nclass = 0", fillcolor="#f2c09c"] ;
20 -> 21 ;
22 [label="gini = 0.0\nsamples = 3\nvalue = [3, 0]\nclass = 0", fillcolor="#e58139"] ;
21 -> 22 ;
23 [label="race_ethnicity_Black <= 0.5\ngini = 0.444\nsamples = 3\nvalue = [1, 2]\nclass = 1", fillcolor="#9ccef2"] ;
21 -> 23 ;
24 [label="age_enc <= 0.5\ngini = 0.5\nsamples = 2\nvalue = [1, 1]\nclass = 0", fillcolor="#ffffff"] ;
23 -> 24 ;
25 [label="gini = 0.0\nsamples = 1\nvalue = [1, 0]\nclass = 0", fillcolor="#e58139"] ;
24 -> 25 ;
26 [label="gini = 0.0\nsamples = 1\nvalue = [0, 1]\nclass = 1", fillcolor="#399de5"] ;
24 -> 26 ;
27 [label="gini = 0.0\nsamples = 1\nvalue = [0, 1]\nclass = 1", fillcolor="#399de5"] ;
23 -> 27 ;
28 [label="gini = 0.0\nsamples = 1\nvalue = [0, 1]\nclass = 1", fillcolor="#399de5"] ;
20 -> 28 ;
29 [label="gini = 0.0\nsamples = 8\nvalue = [0, 8]\nclass = 1", fillcolor="#399de5"] ;
19 -> 29 ;
30 [label="crime_class_D Felony <= 0.5\ngini = 0.288\nsamples = 126\nvalue = [22, 104]\nclass = 1", fillcolor="#63b2ea"] ;
16 -> 30 ;
31 [label="super_dist_1JD <= 0.5\ngini = 0.272\nsamples = 123\nvalue = [20, 103]\nclass = 1", fillcolor="#5fb0ea"] ;
30 -> 31 ;
32 [label="race_ethnicity_Hispanic <= 0.5\ngini = 0.247\nsamples = 118\nvalue = [17, 101]\nclass = 1", fillcolor="#5aade9"] ;
31 -> 32 ;
33 [label="super_dist_3JD <= 0.5\ngini = 0.236\nsamples = 117\nvalue = [16, 101]\nclass = 1", fillcolor="#58ade9"] ;
32 -> 33 ;
34 [label="super_dist_4JD <= 0.5\ngini = 0.204\nsamples = 104\nvalue = [12, 92]\nclass = 1", fillcolor="#53aae8"] ;
33 -> 34 ;
35 [label="super_dist_8JD <= 0.5\ngini = 0.14\nsamples = 79\nvalue = [6, 73]\nclass = 1", fillcolor="#49a5e7"] ;
34 -> 35 ;
36 [label="super_dist_5JD <= 0.5\ngini = 0.065\nsamples = 59\nvalue = [2, 57]\nclass = 1", fillcolor="#40a0e6"] ;
35 -> 36 ;
37 [label="gini = 0.0\nsamples = 45\nvalue = [0, 45]\nclass = 1", fillcolor="#399de5"] ;
36 -> 37 ;
38 [label="race_ethnicity_Black <= 0.5\ngini = 0.245\nsamples = 14\nvalue = [2, 12]\nclass = 1", fillcolor="#5aade9"] ;
36 -> 38 ;
39 [label="release_type_Released to Special Sentence <= 0.5\ngini = 0.153\nsamples = 12\nvalue = [1, 11]\nclass = 1", fillcolor="#4ba6e7"] ;
38 -> 39 ;
40 [label="age_number <= 25.0\ngini = 0.375\nsamples = 4\nvalue = [1, 3]\nclass = 1", fillcolor="#7bbeee"] ;
39 -> 40 ;
41 [label="gini = 0.0\nsamples = 1\nvalue = [0, 1]\nclass = 1", fillcolor="#399de5"] ;
40 -> 41 ;
42 [label="target_pop_Yes <= 0.5\ngini = 0.444\nsamples = 3\nvalue = [1, 2]\nclass = 1", fillcolor="#9ccef2"] ;
40 -> 42 ;
43 [label="gini = 0.0\nsamples = 1\nvalue = [0, 1]\nclass = 1", fillcolor="#399de5"] ;
42 -> 43 ;
44 [label="gini = 0.5\nsamples = 2\nvalue = [1, 1]\nclass = 0", fillcolor="#ffffff"] ;
42 -> 44 ;
45 [label="gini = 0.0\nsamples = 8\nvalue = [0, 8]\nclass = 1", fillcolor="#399de5"] ;
39 -> 45 ;
46 [label="crime_subtype_Special Sentence Revocation <= 0.5\ngini = 0.5\nsamples = 2\nvalue = [1, 1]\nclass = 0", fillcolor="#ffffff"] ;
38 -> 46 ;
47 [label="gini = 0.0\nsamples = 1\nvalue = [1, 0]\nclass = 0", fillcolor="#e58139"] ;
46 -> 47 ;
48 [label="gini = 0.0\nsamples = 1\nvalue = [0, 1]\nclass = 1", fillcolor="#399de5"] ;
46 -> 48 ;
49 [label="release_type_Released to Special Sentence <= 0.5\ngini = 0.32\nsamples = 20\nvalue = [4, 16]\nclass = 1", fillcolor="#6ab6ec"] ;
35 -> 49 ;
50 [label="gini = 0.0\nsamples = 5\nvalue = [0, 5]\nclass = 1", fillcolor="#399de5"] ;
49 -> 50 ;
51 [label="race_ethnicity_White <= 0.5\ngini = 0.391\nsamples = 15\nvalue = [4, 11]\nclass = 1", fillcolor="#81c1ee"] ;
49 -> 51 ;
52 [label="gini = 0.0\nsamples = 5\nvalue = [0, 5]\nclass = 1", fillcolor="#399de5"] ;
51 -> 52 ;
53 [label="target_pop_No <= 0.5\ngini = 0.48\nsamples = 10\nvalue = [4, 6]\nclass = 1", fillcolor="#bddef6"] ;
51 -> 53 ;
54 [label="age_enc <= 0.5\ngini = 0.5\nsamples = 6\nvalue = [3, 3]\nclass = 0", fillcolor="#ffffff"] ;
53 -> 54 ;
55 [label="gini = 0.444\nsamples = 3\nvalue = [1, 2]\nclass = 1", fillcolor="#9ccef2"] ;
54 -> 55 ;
56 [label="gini = 0.444\nsamples = 3\nvalue = [2, 1]\nclass = 0", fillcolor="#f2c09c"] ;
54 -> 56 ;
57 [label="age_number <= 25.0\ngini = 0.375\nsamples = 4\nvalue = [1, 3]\nclass = 1", fillcolor="#7bbeee"] ;
53 -> 57 ;
58 [label="gini = 0.5\nsamples = 2\nvalue = [1, 1]\nclass = 0", fillcolor="#ffffff"] ;
57 -> 58 ;
59 [label="gini = 0.0\nsamples = 2\nvalue = [0, 2]\nclass = 1", fillcolor="#399de5"] ;
57 -> 59 ;
60 [label="release_type_Released to Special Sentence <= 0.5\ngini = 0.365\nsamples = 25\nvalue = [6, 19]\nclass = 1", fillcolor="#78bced"] ;
34 -> 60 ;
61 [label="age_enc <= 0.5\ngini = 0.255\nsamples = 20\nvalue = [3, 17]\nclass = 1", fillcolor="#5caeea"] ;
60 -> 61 ;
62 [label="crime_subtype_Other Criminal <= 0.5\ngini = 0.444\nsamples = 3\nvalue = [2, 1]\nclass = 0", fillcolor="#f2c09c"] ;
61 -> 62 ;
63 [label="gini = 0.0\nsamples = 2\nvalue = [2, 0]\nclass = 0", fillcolor="#e58139"] ;
62 -> 63 ;
64 [label="gini = 0.0\nsamples = 1\nvalue = [0, 1]\nclass = 1", fillcolor="#399de5"] ;
62 -> 64 ;
65 [label="crime_subtype_Special Sentence Revocation <= 0.5\ngini = 0.111\nsamples = 17\nvalue = [1, 16]\nclass = 1", fillcolor="#45a3e7"] ;
61 -> 65 ;
66 [label="gini = 0.0\nsamples = 9\nvalue = [0, 9]\nclass = 1", fillcolor="#399de5"] ;
65 -> 66 ;
67 [label="gini = 0.219\nsamples = 8\nvalue = [1, 7]\nclass = 1", fillcolor="#55abe9"] ;
65 -> 67 ;
68 [label="age_number <= 25.0\ngini = 0.48\nsamples = 5\nvalue = [3, 2]\nclass = 0", fillcolor="#f6d5bd"] ;
60 -> 68 ;
69 [label="gini = 0.0\nsamples = 1\nvalue = [0, 1]\nclass = 1", fillcolor="#399de5"] ;
68 -> 69 ;
70 [label="target_pop_No <= 0.5\ngini = 0.375\nsamples = 4\nvalue = [3, 1]\nclass = 0", fillcolor="#eeab7b"] ;
68 -> 70 ;
71 [label="gini = 0.0\nsamples = 2\nvalue = [2, 0]\nclass = 0", fillcolor="#e58139"] ;
70 -> 71 ;
72 [label="gini = 0.5\nsamples = 2\nvalue = [1, 1]\nclass = 0", fillcolor="#ffffff"] ;
70 -> 72 ;
73 [label="crime_subtype_Other Criminal <= 0.5\ngini = 0.426\nsamples = 13\nvalue = [4, 9]\nclass = 1", fillcolor="#91c9f1"] ;
33 -> 73 ;
74 [label="age_enc <= 0.5\ngini = 0.444\nsamples = 3\nvalue = [2, 1]\nclass = 0", fillcolor="#f2c09c"] ;
73 -> 74 ;
75 [label="gini = 0.0\nsamples = 1\nvalue = [1, 0]\nclass = 0", fillcolor="#e58139"] ;
74 -> 75 ;
76 [label="gini = 0.5\nsamples = 2\nvalue = [1, 1]\nclass = 0", fillcolor="#ffffff"] ;
74 -> 76 ;
77 [label="age_number <= 25.0\ngini = 0.32\nsamples = 10\nvalue = [2, 8]\nclass = 1", fillcolor="#6ab6ec"] ;
73 -> 77 ;
78 [label="release_type_Special Sentence <= 0.5\ngini = 0.245\nsamples = 7\nvalue = [1, 6]\nclass = 1", fillcolor="#5aade9"] ;
77 -> 78 ;
79 [label="gini = 0.32\nsamples = 5\nvalue = [1, 4]\nclass = 1", fillcolor="#6ab6ec"] ;
78 -> 79 ;
80 [label="gini = 0.0\nsamples = 2\nvalue = [0, 2]\nclass = 1", fillcolor="#399de5"] ;
78 -> 80 ;
81 [label="release_type_Released to Special Sentence <= 0.5\ngini = 0.444\nsamples = 3\nvalue = [1, 2]\nclass = 1", fillcolor="#9ccef2"] ;
77 -> 81 ;
82 [label="gini = 0.0\nsamples = 1\nvalue = [1, 0]\nclass = 0", fillcolor="#e58139"] ;
81 -> 82 ;
83 [label="gini = 0.0\nsamples = 2\nvalue = [0, 2]\nclass = 1", fillcolor="#399de5"] ;
81 -> 83 ;
84 [label="gini = 0.0\nsamples = 1\nvalue = [1, 0]\nclass = 0", fillcolor="#e58139"] ;
32 -> 84 ;
85 [label="crime_class_Felony - Enhanced <= 0.5\ngini = 0.48\nsamples = 5\nvalue = [3, 2]\nclass = 0", fillcolor="#f6d5bd"] ;
31 -> 85 ;
86 [label="gini = 0.0\nsamples = 3\nvalue = [3, 0]\nclass = 0", fillcolor="#e58139"] ;
85 -> 86 ;
87 [label="gini = 0.0\nsamples = 2\nvalue = [0, 2]\nclass = 1", fillcolor="#399de5"] ;
85 -> 87 ;
88 [label="super_dist_1JD <= 0.5\ngini = 0.444\nsamples = 3\nvalue = [2, 1]\nclass = 0", fillcolor="#f2c09c"] ;
30 -> 88 ;
89 [label="gini = 0.0\nsamples = 2\nvalue = [2, 0]\nclass = 0", fillcolor="#e58139"] ;
88 -> 89 ;
90 [label="gini = 0.0\nsamples = 1\nvalue = [0, 1]\nclass = 1", fillcolor="#399de5"] ;
88 -> 90 ;
91 [label="crime_class_D Felony <= 0.5\ngini = 0.453\nsamples = 26\nvalue = [9, 17]\nclass = 1", fillcolor="#a2d1f3"] ;
15 -> 91 ;
92 [label="super_dist_5JD <= 0.5\ngini = 0.32\nsamples = 5\nvalue = [4, 1]\nclass = 0", fillcolor="#eca06a"] ;
91 -> 92 ;
93 [label="gini = 0.0\nsamples = 4\nvalue = [4, 0]\nclass = 0", fillcolor="#e58139"] ;
92 -> 93 ;
94 [label="gini = 0.0\nsamples = 1\nvalue = [0, 1]\nclass = 1", fillcolor="#399de5"] ;
92 -> 94 ;
95 [label="age_number <= 25.0\ngini = 0.363\nsamples = 21\nvalue = [5, 16]\nclass = 1", fillcolor="#77bced"] ;
91 -> 95 ;
96 [label="super_dist_2JD <= 0.5\ngini = 0.486\nsamples = 12\nvalue = [5, 7]\nclass = 1", fillcolor="#c6e3f8"] ;
95 -> 96 ;
97 [label="crime_subtype_Forgery/Fraud <= 0.5\ngini = 0.494\nsamples = 9\nvalue = [5, 4]\nclass = 0", fillcolor="#fae6d7"] ;
96 -> 97 ;
98 [label="super_dist_4JD <= 0.5\ngini = 0.469\nsamples = 8\nvalue = [5, 3]\nclass = 0", fillcolor="#f5cdb0"] ;
97 -> 98 ;
99 [label="crime_subtype_Assault <= 0.5\ngini = 0.32\nsamples = 5\nvalue = [4, 1]\nclass = 0", fillcolor="#eca06a"] ;
98 -> 99 ;
100 [label="gini = 0.0\nsamples = 3\nvalue = [3, 0]\nclass = 0", fillcolor="#e58139"] ;
99 -> 100 ;
101 [label="gini = 0.5\nsamples = 2\nvalue = [1, 1]\nclass = 0", fillcolor="#ffffff"] ;
99 -> 101 ;
102 [label="crime_subtype_Theft <= 0.5\ngini = 0.444\nsamples = 3\nvalue = [1, 2]\nclass = 1", fillcolor="#9ccef2"] ;
98 -> 102 ;
103 [label="gini = 0.0\nsamples = 1\nvalue = [0, 1]\nclass = 1", fillcolor="#399de5"] ;
102 -> 103 ;
104 [label="gini = 0.5\nsamples = 2\nvalue = [1, 1]\nclass = 0", fillcolor="#ffffff"] ;
102 -> 104 ;
105 [label="gini = 0.0\nsamples = 1\nvalue = [0, 1]\nclass = 1", fillcolor="#399de5"] ;
97 -> 105 ;
106 [label="gini = 0.0\nsamples = 3\nvalue = [0, 3]\nclass = 1", fillcolor="#399de5"] ;
96 -> 106 ;
107 [label="gini = 0.0\nsamples = 9\nvalue = [0, 9]\nclass = 1", fillcolor="#399de5"] ;
95 -> 107 ;
108 [label="super_dist_1JD <= 0.5\ngini = 0.291\nsamples = 283\nvalue = [50, 233]\nclass = 1", fillcolor="#63b2eb"] ;
14 -> 108 ;
109 [label="race_ethnicity_American Native <= 0.5\ngini = 0.247\nsamples = 263\nvalue = [38, 225]\nclass = 1", fillcolor="#5aaee9"] ;
108 -> 109 ;
110 [label="super_dist_2JD <= 0.5\ngini = 0.234\nsamples = 259\nvalue = [35, 224]\nclass = 1", fillcolor="#58ace9"] ;
109 -> 110 ;
111 [label="age_enc <= 0.5\ngini = 0.19\nsamples = 226\nvalue = [24, 202]\nclass = 1", fillcolor="#51a9e8"] ;
110 -> 111 ;
112 [label="super_dist_4JD <= 0.5\ngini = 0.105\nsamples = 108\nvalue = [6, 102]\nclass = 1", fillcolor="#45a3e7"] ;
111 -> 112 ;
113 [label="crime_class_Aggravated Misdemeanor <= 0.5\ngini = 0.078\nsamples = 99\nvalue = [4, 95]\nclass = 1", fillcolor="#41a1e6"] ;
112 -> 113 ;
114 [label="super_dist_5JD <= 0.5\ngini = 0.036\nsamples = 54\nvalue = [1, 53]\nclass = 1", fillcolor="#3d9fe5"] ;
113 -> 114 ;
115 [label="gini = 0.0\nsamples = 38\nvalue = [0, 38]\nclass = 1", fillcolor="#399de5"] ;
114 -> 115 ;
116 [label="release_type_Special Sentence <= 0.5\ngini = 0.117\nsamples = 16\nvalue = [1, 15]\nclass = 1", fillcolor="#46a4e7"] ;
114 -> 116 ;
117 [label="gini = 0.0\nsamples = 10\nvalue = [0, 10]\nclass = 1", fillcolor="#399de5"] ;
116 -> 117 ;
118 [label="crime_class_D Felony <= 0.5\ngini = 0.278\nsamples = 6\nvalue = [1, 5]\nclass = 1", fillcolor="#61b1ea"] ;
116 -> 118 ;
119 [label="gini = 0.0\nsamples = 2\nvalue = [0, 2]\nclass = 1", fillcolor="#399de5"] ;
118 -> 119 ;
120 [label="race_ethnicity_White <= 0.5\ngini = 0.375\nsamples = 4\nvalue = [1, 3]\nclass = 1", fillcolor="#7bbeee"] ;
118 -> 120 ;
121 [label="gini = 0.0\nsamples = 1\nvalue = [0, 1]\nclass = 1", fillcolor="#399de5"] ;
120 -> 121 ;
122 [label="gini = 0.444\nsamples = 3\nvalue = [1, 2]\nclass = 1", fillcolor="#9ccef2"] ;
120 -> 122 ;
123 [label="release_type_Released to Special Sentence <= 0.5\ngini = 0.124\nsamples = 45\nvalue = [3, 42]\nclass = 1", fillcolor="#47a4e7"] ;
113 -> 123 ;
124 [label="super_dist_8JD <= 0.5\ngini = 0.057\nsamples = 34\nvalue = [1, 33]\nclass = 1", fillcolor="#3fa0e6"] ;
123 -> 124 ;
125 [label="gini = 0.0\nsamples = 24\nvalue = [0, 24]\nclass = 1", fillcolor="#399de5"] ;
124 -> 125 ;
126 [label="race_ethnicity_White <= 0.5\ngini = 0.18\nsamples = 10\nvalue = [1, 9]\nclass = 1", fillcolor="#4fa8e8"] ;
124 -> 126 ;
127 [label="gini = 0.0\nsamples = 2\nvalue = [0, 2]\nclass = 1", fillcolor="#399de5"] ;
126 -> 127 ;
128 [label="release_type_Special Sentence <= 0.5\ngini = 0.219\nsamples = 8\nvalue = [1, 7]\nclass = 1", fillcolor="#55abe9"] ;
126 -> 128 ;
129 [label="gini = 0.0\nsamples = 1\nvalue = [0, 1]\nclass = 1", fillcolor="#399de5"] ;
128 -> 129 ;
130 [label="gini = 0.245\nsamples = 7\nvalue = [1, 6]\nclass = 1", fillcolor="#5aade9"] ;
128 -> 130 ;
131 [label="super_dist_8JD <= 0.5\ngini = 0.298\nsamples = 11\nvalue = [2, 9]\nclass = 1", fillcolor="#65b3eb"] ;
123 -> 131 ;
132 [label="super_dist_5JD <= 0.5\ngini = 0.198\nsamples = 9\nvalue = [1, 8]\nclass = 1", fillcolor="#52a9e8"] ;
131 -> 132 ;
133 [label="gini = 0.0\nsamples = 7\nvalue = [0, 7]\nclass = 1", fillcolor="#399de5"] ;
132 -> 133 ;
134 [label="gini = 0.5\nsamples = 2\nvalue = [1, 1]\nclass = 0", fillcolor="#ffffff"] ;
132 -> 134 ;
135 [label="gini = 0.5\nsamples = 2\nvalue = [1, 1]\nclass = 0", fillcolor="#ffffff"] ;
131 -> 135 ;
136 [label="release_type_Released to Special Sentence <= 0.5\ngini = 0.346\nsamples = 9\nvalue = [2, 7]\nclass = 1", fillcolor="#72b9ec"] ;
112 -> 136 ;
137 [label="crime_class_D Felony <= 0.5\ngini = 0.444\nsamples = 3\nvalue = [2, 1]\nclass = 0", fillcolor="#f2c09c"] ;
136 -> 137 ;
138 [label="gini = 0.0\nsamples = 2\nvalue = [2, 0]\nclass = 0", fillcolor="#e58139"] ;
137 -> 138 ;
139 [label="gini = 0.0\nsamples = 1\nvalue = [0, 1]\nclass = 1", fillcolor="#399de5"] ;
137 -> 139 ;
140 [label="gini = 0.0\nsamples = 6\nvalue = [0, 6]\nclass = 1", fillcolor="#399de5"] ;
136 -> 140 ;
141 [label="super_dist_3JD <= 0.5\ngini = 0.259\nsamples = 118\nvalue = [18, 100]\nclass = 1", fillcolor="#5dafea"] ;
111 -> 141 ;
142 [label="super_dist_5JD <= 0.5\ngini = 0.217\nsamples = 105\nvalue = [13, 92]\nclass = 1", fillcolor="#55abe9"] ;
141 -> 142 ;
143 [label="super_dist_4JD <= 0.5\ngini = 0.136\nsamples = 82\nvalue = [6, 76]\nclass = 1", fillcolor="#49a5e7"] ;
142 -> 143 ;
144 [label="super_dist_8JD <= 0.5\ngini = 0.084\nsamples = 68\nvalue = [3, 65]\nclass = 1", fillcolor="#42a2e6"] ;
143 -> 144 ;
145 [label="gini = 0.0\nsamples = 43\nvalue = [0, 43]\nclass = 1", fillcolor="#399de5"] ;
144 -> 145 ;
146 [label="release_type_Special Sentence <= 0.5\ngini = 0.211\nsamples = 25\nvalue = [3, 22]\nclass = 1", fillcolor="#54aae9"] ;
144 -> 146 ;
147 [label="crime_class_C Felony <= 0.5\ngini = 0.133\nsamples = 14\nvalue = [1, 13]\nclass = 1", fillcolor="#48a5e7"] ;
146 -> 147 ;
148 [label="gini = 0.0\nsamples = 11\nvalue = [0, 11]\nclass = 1", fillcolor="#399de5"] ;
147 -> 148 ;
149 [label="gini = 0.444\nsamples = 3\nvalue = [1, 2]\nclass = 1", fillcolor="#9ccef2"] ;
147 -> 149 ;
150 [label="crime_class_D Felony <= 0.5\ngini = 0.298\nsamples = 11\nvalue = [2, 9]\nclass = 1", fillcolor="#65b3eb"] ;
146 -> 150 ;
151 [label="crime_class_Aggravated Misdemeanor <= 0.5\ngini = 0.18\nsamples = 10\nvalue = [1, 9]\nclass = 1", fillcolor="#4fa8e8"] ;
150 -> 151 ;
152 [label="gini = 0.0\nsamples = 6\nvalue = [0, 6]\nclass = 1", fillcolor="#399de5"] ;
151 -> 152 ;
153 [label="race_ethnicity_White <= 0.5\ngini = 0.375\nsamples = 4\nvalue = [1, 3]\nclass = 1", fillcolor="#7bbeee"] ;
151 -> 153 ;
154 [label="gini = 0.0\nsamples = 2\nvalue = [0, 2]\nclass = 1", fillcolor="#399de5"] ;
153 -> 154 ;
155 [label="gini = 0.5\nsamples = 2\nvalue = [1, 1]\nclass = 0", fillcolor="#ffffff"] ;
153 -> 155 ;
156 [label="gini = 0.0\nsamples = 1\nvalue = [1, 0]\nclass = 0", fillcolor="#e58139"] ;
150 -> 156 ;
157 [label="crime_class_C Felony <= 0.5\ngini = 0.337\nsamples = 14\nvalue = [3, 11]\nclass = 1", fillcolor="#6fb8ec"] ;
143 -> 157 ;
158 [label="crime_class_Sex Offender <= 0.5\ngini = 0.165\nsamples = 11\nvalue = [1, 10]\nclass = 1", fillcolor="#4da7e8"] ;
157 -> 158 ;
159 [label="gini = 0.0\nsamples = 7\nvalue = [0, 7]\nclass = 1", fillcolor="#399de5"] ;
158 -> 159 ;
160 [label="gini = 0.375\nsamples = 4\nvalue = [1, 3]\nclass = 1", fillcolor="#7bbeee"] ;
158 -> 160 ;
161 [label="gini = 0.444\nsamples = 3\nvalue = [2, 1]\nclass = 0", fillcolor="#f2c09c"] ;
157 -> 161 ;
162 [label="target_pop_No <= 0.5\ngini = 0.423\nsamples = 23\nvalue = [7, 16]\nclass = 1", fillcolor="#90c8f0"] ;
142 -> 162 ;
163 [label="crime_class_Aggravated Misdemeanor <= 0.5\ngini = 0.332\nsamples = 19\nvalue = [4, 15]\nclass = 1", fillcolor="#6eb7ec"] ;
162 -> 163 ;
164 [label="crime_class_C Felony <= 0.5\ngini = 0.219\nsamples = 16\nvalue = [2, 14]\nclass = 1", fillcolor="#55abe9"] ;
163 -> 164 ;
165 [label="gini = 0.0\nsamples = 3\nvalue = [0, 3]\nclass = 1", fillcolor="#399de5"] ;
164 -> 165 ;
166 [label="release_type_Special Sentence <= 0.5\ngini = 0.26\nsamples = 13\nvalue = [2, 11]\nclass = 1", fillcolor="#5dafea"] ;
164 -> 166 ;
167 [label="race_ethnicity_White <= 0.5\ngini = 0.18\nsamples = 10\nvalue = [1, 9]\nclass = 1", fillcolor="#4fa8e8"] ;
166 -> 167 ;
168 [label="gini = 0.0\nsamples = 2\nvalue = [0, 2]\nclass = 1", fillcolor="#399de5"] ;
167 -> 168 ;
169 [label="target_pop_Yes <= 0.5\ngini = 0.219\nsamples = 8\nvalue = [1, 7]\nclass = 1", fillcolor="#55abe9"] ;
167 -> 169 ;
170 [label="gini = 0.0\nsamples = 1\nvalue = [0, 1]\nclass = 1", fillcolor="#399de5"] ;
169 -> 170 ;
171 [label="sex_Female <= 0.5\ngini = 0.245\nsamples = 7\nvalue = [1, 6]\nclass = 1", fillcolor="#5aade9"] ;
169 -> 171 ;
172 [label="release_type_Released to Special Sentence <= 0.5\ngini = 0.278\nsamples = 6\nvalue = [1, 5]\nclass = 1", fillcolor="#61b1ea"] ;
171 -> 172 ;
173 [label="gini = 0.0\nsamples = 1\nvalue = [0, 1]\nclass = 1", fillcolor="#399de5"] ;
172 -> 173 ;
174 [label="gini = 0.32\nsamples = 5\nvalue = [1, 4]\nclass = 1", fillcolor="#6ab6ec"] ;
172 -> 174 ;
175 [label="gini = 0.0\nsamples = 1\nvalue = [0, 1]\nclass = 1", fillcolor="#399de5"] ;
171 -> 175 ;
176 [label="gini = 0.444\nsamples = 3\nvalue = [1, 2]\nclass = 1", fillcolor="#9ccef2"] ;
166 -> 176 ;
177 [label="race_ethnicity_White <= 0.5\ngini = 0.444\nsamples = 3\nvalue = [2, 1]\nclass = 0", fillcolor="#f2c09c"] ;
163 -> 177 ;
178 [label="gini = 0.0\nsamples = 2\nvalue = [2, 0]\nclass = 0", fillcolor="#e58139"] ;
177 -> 178 ;
179 [label="gini = 0.0\nsamples = 1\nvalue = [0, 1]\nclass = 1", fillcolor="#399de5"] ;
177 -> 179 ;
180 [label="crime_class_C Felony <= 0.5\ngini = 0.375\nsamples = 4\nvalue = [3, 1]\nclass = 0", fillcolor="#eeab7b"] ;
162 -> 180 ;
181 [label="gini = 0.0\nsamples = 2\nvalue = [2, 0]\nclass = 0", fillcolor="#e58139"] ;
180 -> 181 ;
182 [label="gini = 0.5\nsamples = 2\nvalue = [1, 1]\nclass = 0", fillcolor="#ffffff"] ;
180 -> 182 ;
183 [label="crime_class_C Felony <= 0.5\ngini = 0.473\nsamples = 13\nvalue = [5, 8]\nclass = 1", fillcolor="#b5daf5"] ;
141 -> 183 ;
184 [label="release_type_Released to Special Sentence <= 0.5\ngini = 0.346\nsamples = 9\nvalue = [2, 7]\nclass = 1", fillcolor="#72b9ec"] ;
183 -> 184 ;
185 [label="gini = 0.0\nsamples = 4\nvalue = [0, 4]\nclass = 1", fillcolor="#399de5"] ;
184 -> 185 ;
186 [label="crime_class_Sex Offender <= 0.5\ngini = 0.48\nsamples = 5\nvalue = [2, 3]\nclass = 1", fillcolor="#bddef6"] ;
184 -> 186 ;
187 [label="crime_class_D Felony <= 0.5\ngini = 0.375\nsamples = 4\nvalue = [1, 3]\nclass = 1", fillcolor="#7bbeee"] ;
186 -> 187 ;
188 [label="gini = 0.0\nsamples = 2\nvalue = [0, 2]\nclass = 1", fillcolor="#399de5"] ;
187 -> 188 ;
189 [label="gini = 0.5\nsamples = 2\nvalue = [1, 1]\nclass = 0", fillcolor="#ffffff"] ;
187 -> 189 ;
190 [label="gini = 0.0\nsamples = 1\nvalue = [1, 0]\nclass = 0", fillcolor="#e58139"] ;
186 -> 190 ;
191 [label="race_ethnicity_Black <= 0.5\ngini = 0.375\nsamples = 4\nvalue = [3, 1]\nclass = 0", fillcolor="#eeab7b"] ;
183 -> 191 ;
192 [label="gini = 0.0\nsamples = 3\nvalue = [3, 0]\nclass = 0", fillcolor="#e58139"] ;
191 -> 192 ;
193 [label="gini = 0.0\nsamples = 1\nvalue = [0, 1]\nclass = 1", fillcolor="#399de5"] ;
191 -> 193 ;
194 [label="age_number <= 25.0\ngini = 0.444\nsamples = 33\nvalue = [11, 22]\nclass = 1", fillcolor="#9ccef2"] ;
110 -> 194 ;
195 [label="crime_class_D Felony <= 0.5\ngini = 0.266\nsamples = 19\nvalue = [3, 16]\nclass = 1", fillcolor="#5eafea"] ;
194 -> 195 ;
196 [label="release_type_Released to Special Sentence <= 0.5\ngini = 0.208\nsamples = 17\nvalue = [2, 15]\nclass = 1", fillcolor="#53aae8"] ;
195 -> 196 ;
197 [label="crime_class_C Felony <= 0.5\ngini = 0.408\nsamples = 7\nvalue = [2, 5]\nclass = 1", fillcolor="#88c4ef"] ;
196 -> 197 ;
198 [label="crime_class_Aggravated Misdemeanor <= 0.5\ngini = 0.278\nsamples = 6\nvalue = [1, 5]\nclass = 1", fillcolor="#61b1ea"] ;
197 -> 198 ;
199 [label="gini = 0.0\nsamples = 1\nvalue = [0, 1]\nclass = 1", fillcolor="#399de5"] ;
198 -> 199 ;
200 [label="race_ethnicity_White <= 0.5\ngini = 0.32\nsamples = 5\nvalue = [1, 4]\nclass = 1", fillcolor="#6ab6ec"] ;
198 -> 200 ;
201 [label="gini = 0.0\nsamples = 1\nvalue = [0, 1]\nclass = 1", fillcolor="#399de5"] ;
200 -> 201 ;
202 [label="gini = 0.375\nsamples = 4\nvalue = [1, 3]\nclass = 1", fillcolor="#7bbeee"] ;
200 -> 202 ;
203 [label="gini = 0.0\nsamples = 1\nvalue = [1, 0]\nclass = 0", fillcolor="#e58139"] ;
197 -> 203 ;
204 [label="gini = 0.0\nsamples = 10\nvalue = [0, 10]\nclass = 1", fillcolor="#399de5"] ;
196 -> 204 ;
205 [label="release_type_Released to Special Sentence <= 0.5\ngini = 0.5\nsamples = 2\nvalue = [1, 1]\nclass = 0", fillcolor="#ffffff"] ;
195 -> 205 ;
206 [label="gini = 0.0\nsamples = 1\nvalue = [0, 1]\nclass = 1", fillcolor="#399de5"] ;
205 -> 206 ;
207 [label="gini = 0.0\nsamples = 1\nvalue = [1, 0]\nclass = 0", fillcolor="#e58139"] ;
205 -> 207 ;
208 [label="crime_class_D Felony <= 0.5\ngini = 0.49\nsamples = 14\nvalue = [8, 6]\nclass = 0", fillcolor="#f8e0ce"] ;
194 -> 208 ;
209 [label="target_pop_No <= 0.5\ngini = 0.397\nsamples = 11\nvalue = [8, 3]\nclass = 0", fillcolor="#efb083"] ;
208 -> 209 ;
210 [label="release_type_Released to Special Sentence <= 0.5\ngini = 0.42\nsamples = 10\nvalue = [7, 3]\nclass = 0", fillcolor="#f0b78e"] ;
209 -> 210 ;
211 [label="gini = 0.444\nsamples = 6\nvalue = [4, 2]\nclass = 0", fillcolor="#f2c09c"] ;
210 -> 211 ;
212 [label="gini = 0.375\nsamples = 4\nvalue = [3, 1]\nclass = 0", fillcolor="#eeab7b"] ;
210 -> 212 ;
213 [label="gini = 0.0\nsamples = 1\nvalue = [1, 0]\nclass = 0", fillcolor="#e58139"] ;
209 -> 213 ;
214 [label="gini = 0.0\nsamples = 3\nvalue = [0, 3]\nclass = 1", fillcolor="#399de5"] ;
208 -> 214 ;
215 [label="target_pop_No <= 0.5\ngini = 0.375\nsamples = 4\nvalue = [3, 1]\nclass = 0", fillcolor="#eeab7b"] ;
109 -> 215 ;
216 [label="gini = 0.0\nsamples = 2\nvalue = [2, 0]\nclass = 0", fillcolor="#e58139"] ;
215 -> 216 ;
217 [label="crime_class_D Felony <= 0.5\ngini = 0.5\nsamples = 2\nvalue = [1, 1]\nclass = 0", fillcolor="#ffffff"] ;
215 -> 217 ;
218 [label="gini = 0.0\nsamples = 1\nvalue = [0, 1]\nclass = 1", fillcolor="#399de5"] ;
217 -> 218 ;
219 [label="gini = 0.0\nsamples = 1\nvalue = [1, 0]\nclass = 0", fillcolor="#e58139"] ;
217 -> 219 ;
220 [label="crime_class_D Felony <= 0.5\ngini = 0.48\nsamples = 20\nvalue = [12, 8]\nclass = 0", fillcolor="#f6d5bd"] ;
108 -> 220 ;
221 [label="release_type_Released to Special Sentence <= 0.5\ngini = 0.498\nsamples = 17\nvalue = [9, 8]\nclass = 0", fillcolor="#fcf1e9"] ;
220 -> 221 ;
222 [label="age_enc <= 0.5\ngini = 0.444\nsamples = 9\nvalue = [6, 3]\nclass = 0", fillcolor="#f2c09c"] ;
221 -> 222 ;
223 [label="crime_class_C Felony <= 0.5\ngini = 0.444\nsamples = 3\nvalue = [1, 2]\nclass = 1", fillcolor="#9ccef2"] ;
222 -> 223 ;
224 [label="gini = 0.5\nsamples = 2\nvalue = [1, 1]\nclass = 0", fillcolor="#ffffff"] ;
223 -> 224 ;
225 [label="gini = 0.0\nsamples = 1\nvalue = [0, 1]\nclass = 1", fillcolor="#399de5"] ;
223 -> 225 ;
226 [label="crime_class_Aggravated Misdemeanor <= 0.5\ngini = 0.278\nsamples = 6\nvalue = [5, 1]\nclass = 0", fillcolor="#ea9a61"] ;
222 -> 226 ;
227 [label="gini = 0.0\nsamples = 3\nvalue = [3, 0]\nclass = 0", fillcolor="#e58139"] ;
226 -> 227 ;
228 [label="gini = 0.444\nsamples = 3\nvalue = [2, 1]\nclass = 0", fillcolor="#f2c09c"] ;
226 -> 228 ;
229 [label="crime_class_Sex Offender <= 0.5\ngini = 0.469\nsamples = 8\nvalue = [3, 5]\nclass = 1", fillcolor="#b0d8f5"] ;
221 -> 229 ;
230 [label="race_ethnicity_White <= 0.5\ngini = 0.49\nsamples = 7\nvalue = [3, 4]\nclass = 1", fillcolor="#cee6f8"] ;
229 -> 230 ;
231 [label="age_enc <= 0.5\ngini = 0.444\nsamples = 3\nvalue = [1, 2]\nclass = 1", fillcolor="#9ccef2"] ;
230 -> 231 ;
232 [label="gini = 0.0\nsamples = 1\nvalue = [0, 1]\nclass = 1", fillcolor="#399de5"] ;
231 -> 232 ;
233 [label="gini = 0.5\nsamples = 2\nvalue = [1, 1]\nclass = 0", fillcolor="#ffffff"] ;
231 -> 233 ;
234 [label="crime_class_C Felony <= 0.5\ngini = 0.5\nsamples = 4\nvalue = [2, 2]\nclass = 0", fillcolor="#ffffff"] ;
230 -> 234 ;
235 [label="age_number <= 25.0\ngini = 0.5\nsamples = 2\nvalue = [1, 1]\nclass = 0", fillcolor="#ffffff"] ;
234 -> 235 ;
236 [label="gini = 0.0\nsamples = 1\nvalue = [1, 0]\nclass = 0", fillcolor="#e58139"] ;
235 -> 236 ;
237 [label="gini = 0.0\nsamples = 1\nvalue = [0, 1]\nclass = 1", fillcolor="#399de5"] ;
235 -> 237 ;
238 [label="age_enc <= 0.5\ngini = 0.5\nsamples = 2\nvalue = [1, 1]\nclass = 0", fillcolor="#ffffff"] ;
234 -> 238 ;
239 [label="gini = 0.0\nsamples = 1\nvalue = [0, 1]\nclass = 1", fillcolor="#399de5"] ;
238 -> 239 ;
240 [label="gini = 0.0\nsamples = 1\nvalue = [1, 0]\nclass = 0", fillcolor="#e58139"] ;
238 -> 240 ;
241 [label="gini = 0.0\nsamples = 1\nvalue = [0, 1]\nclass = 1", fillcolor="#399de5"] ;
229 -> 241 ;
242 [label="gini = 0.0\nsamples = 3\nvalue = [3, 0]\nclass = 0", fillcolor="#e58139"] ;
220 -> 242 ;
243 [label="super_dist_5JD <= 0.5\ngini = 0.476\nsamples = 23\nvalue = [9, 14]\nclass = 1", fillcolor="#b8dcf6"] ;
13 -> 243 ;
244 [label="target_pop_Yes <= 0.5\ngini = 0.32\nsamples = 15\nvalue = [3, 12]\nclass = 1", fillcolor="#6ab6ec"] ;
243 -> 244 ;
245 [label="gini = 0.0\nsamples = 2\nvalue = [2, 0]\nclass = 0", fillcolor="#e58139"] ;
244 -> 245 ;
246 [label="super_dist_4JD <= 0.5\ngini = 0.142\nsamples = 13\nvalue = [1, 12]\nclass = 1", fillcolor="#49a5e7"] ;
244 -> 246 ;
247 [label="gini = 0.0\nsamples = 12\nvalue = [0, 12]\nclass = 1", fillcolor="#399de5"] ;
246 -> 247 ;
248 [label="gini = 0.0\nsamples = 1\nvalue = [1, 0]\nclass = 0", fillcolor="#e58139"] ;
246 -> 248 ;
249 [label="sex_Male <= 0.5\ngini = 0.375\nsamples = 8\nvalue = [6, 2]\nclass = 0", fillcolor="#eeab7b"] ;
243 -> 249 ;
250 [label="gini = 0.0\nsamples = 2\nvalue = [0, 2]\nclass = 1", fillcolor="#399de5"] ;
249 -> 250 ;
251 [label="gini = 0.0\nsamples = 6\nvalue = [6, 0]\nclass = 0", fillcolor="#e58139"] ;
249 -> 251 ;
252 [label="crime_type_Property <= 0.5\ngini = 0.444\nsamples = 48\nvalue = [16, 32]\nclass = 1", fillcolor="#9ccef2"] ;
12 -> 252 ;
253 [label="crime_subtype_Traffic <= 0.5\ngini = 0.48\nsamples = 40\nvalue = [16, 24]\nclass = 1", fillcolor="#bddef6"] ;
252 -> 253 ;
254 [label="crime_class_D Felony <= 0.5\ngini = 0.473\nsamples = 39\nvalue = [15, 24]\nclass = 1", fillcolor="#b5daf5"] ;
253 -> 254 ;
255 [label="race_ethnicity_American Native <= 0.5\ngini = 0.482\nsamples = 37\nvalue = [15, 22]\nclass = 1", fillcolor="#c0e0f7"] ;
254 -> 255 ;
256 [label="race_ethnicity_White <= 0.5\ngini = 0.475\nsamples = 36\nvalue = [14, 22]\nclass = 1", fillcolor="#b7dbf6"] ;
255 -> 256 ;
257 [label="age_enc <= 0.5\ngini = 0.397\nsamples = 11\nvalue = [3, 8]\nclass = 1", fillcolor="#83c2ef"] ;
256 -> 257 ;
258 [label="crime_class_Aggravated Misdemeanor <= 0.5\ngini = 0.5\nsamples = 6\nvalue = [3, 3]\nclass = 0", fillcolor="#ffffff"] ;
257 -> 258 ;
259 [label="release_type_Released to Special Sentence <= 0.5\ngini = 0.375\nsamples = 4\nvalue = [1, 3]\nclass = 1", fillcolor="#7bbeee"] ;
258 -> 259 ;
260 [label="race_ethnicity_Black <= 0.5\ngini = 0.5\nsamples = 2\nvalue = [1, 1]\nclass = 0", fillcolor="#ffffff"] ;
259 -> 260 ;
261 [label="gini = 0.0\nsamples = 1\nvalue = [0, 1]\nclass = 1", fillcolor="#399de5"] ;
260 -> 261 ;
262 [label="gini = 0.0\nsamples = 1\nvalue = [1, 0]\nclass = 0", fillcolor="#e58139"] ;
260 -> 262 ;
263 [label="gini = 0.0\nsamples = 2\nvalue = [0, 2]\nclass = 1", fillcolor="#399de5"] ;
259 -> 263 ;
264 [label="gini = 0.0\nsamples = 2\nvalue = [2, 0]\nclass = 0", fillcolor="#e58139"] ;
258 -> 264 ;
265 [label="gini = 0.0\nsamples = 5\nvalue = [0, 5]\nclass = 1", fillcolor="#399de5"] ;
257 -> 265 ;
266 [label="target_pop_No <= 0.5\ngini = 0.493\nsamples = 25\nvalue = [11, 14]\nclass = 1", fillcolor="#d5eaf9"] ;
256 -> 266 ;
267 [label="crime_subtype_Other Criminal <= 0.5\ngini = 0.486\nsamples = 24\nvalue = [10, 14]\nclass = 1", fillcolor="#c6e3f8"] ;
266 -> 267 ;
268 [label="crime_class_Aggravated Misdemeanor <= 0.5\ngini = 0.444\nsamples = 15\nvalue = [5, 10]\nclass = 1", fillcolor="#9ccef2"] ;
267 -> 268 ;
269 [label="release_type_Released to Special Sentence <= 0.5\ngini = 0.49\nsamples = 7\nvalue = [4, 3]\nclass = 0", fillcolor="#f8e0ce"] ;
268 -> 269 ;
270 [label="gini = 0.0\nsamples = 3\nvalue = [3, 0]\nclass = 0", fillcolor="#e58139"] ;
269 -> 270 ;
271 [label="age_enc <= 0.5\ngini = 0.375\nsamples = 4\nvalue = [1, 3]\nclass = 1", fillcolor="#7bbeee"] ;
269 -> 271 ;
272 [label="gini = 0.0\nsamples = 1\nvalue = [1, 0]\nclass = 0", fillcolor="#e58139"] ;
271 -> 272 ;
273 [label="gini = 0.0\nsamples = 3\nvalue = [0, 3]\nclass = 1", fillcolor="#399de5"] ;
271 -> 273 ;
274 [label="age_number <= 25.0\ngini = 0.219\nsamples = 8\nvalue = [1, 7]\nclass = 1", fillcolor="#55abe9"] ;
268 -> 274 ;
275 [label="crime_type_Violent <= 0.5\ngini = 0.278\nsamples = 6\nvalue = [1, 5]\nclass = 1", fillcolor="#61b1ea"] ;
274 -> 275 ;
276 [label="gini = 0.0\nsamples = 2\nvalue = [0, 2]\nclass = 1", fillcolor="#399de5"] ;
275 -> 276 ;
277 [label="gini = 0.375\nsamples = 4\nvalue = [1, 3]\nclass = 1", fillcolor="#7bbeee"] ;
275 -> 277 ;
278 [label="gini = 0.0\nsamples = 2\nvalue = [0, 2]\nclass = 1", fillcolor="#399de5"] ;
274 -> 278 ;
279 [label="age_number <= 25.0\ngini = 0.494\nsamples = 9\nvalue = [5, 4]\nclass = 0", fillcolor="#fae6d7"] ;
267 -> 279 ;
280 [label="gini = 0.0\nsamples = 1\nvalue = [1, 0]\nclass = 0", fillcolor="#e58139"] ;
279 -> 280 ;
281 [label="gini = 0.5\nsamples = 8\nvalue = [4, 4]\nclass = 0", fillcolor="#ffffff"] ;
279 -> 281 ;
282 [label="gini = 0.0\nsamples = 1\nvalue = [1, 0]\nclass = 0", fillcolor="#e58139"] ;
266 -> 282 ;
283 [label="gini = 0.0\nsamples = 1\nvalue = [1, 0]\nclass = 0", fillcolor="#e58139"] ;
255 -> 283 ;
284 [label="gini = 0.0\nsamples = 2\nvalue = [0, 2]\nclass = 1", fillcolor="#399de5"] ;
254 -> 284 ;
285 [label="gini = 0.0\nsamples = 1\nvalue = [1, 0]\nclass = 0", fillcolor="#e58139"] ;
253 -> 285 ;
286 [label="gini = 0.0\nsamples = 8\nvalue = [0, 8]\nclass = 1", fillcolor="#399de5"] ;
252 -> 286 ;
287 [label="crime_subtype_Burglary <= 0.5\ngini = 0.469\nsamples = 8\nvalue = [5, 3]\nclass = 0", fillcolor="#f5cdb0"] ;
11 -> 287 ;
288 [label="crime_subtype_Robbery <= 0.5\ngini = 0.408\nsamples = 7\nvalue = [5, 2]\nclass = 0", fillcolor="#efb388"] ;
287 -> 288 ;
289 [label="age_number <= 25.0\ngini = 0.278\nsamples = 6\nvalue = [5, 1]\nclass = 0", fillcolor="#ea9a61"] ;
288 -> 289 ;
290 [label="crime_class_C Felony <= 0.5\ngini = 0.5\nsamples = 2\nvalue = [1, 1]\nclass = 0", fillcolor="#ffffff"] ;
289 -> 290 ;
291 [label="gini = 0.0\nsamples = 1\nvalue = [0, 1]\nclass = 1", fillcolor="#399de5"] ;
290 -> 291 ;
292 [label="gini = 0.0\nsamples = 1\nvalue = [1, 0]\nclass = 0", fillcolor="#e58139"] ;
290 -> 292 ;
293 [label="gini = 0.0\nsamples = 4\nvalue = [4, 0]\nclass = 0", fillcolor="#e58139"] ;
289 -> 293 ;
294 [label="gini = 0.0\nsamples = 1\nvalue = [0, 1]\nclass = 1", fillcolor="#399de5"] ;
288 -> 294 ;
295 [label="gini = 0.0\nsamples = 1\nvalue = [0, 1]\nclass = 1", fillcolor="#399de5"] ;
287 -> 295 ;
296 [label="crime_class_D Felony <= 0.5\ngini = 0.278\nsamples = 6\nvalue = [5, 1]\nclass = 0", fillcolor="#ea9a61"] ;
10 -> 296 ;
297 [label="super_dist_1JD <= 0.5\ngini = 0.5\nsamples = 2\nvalue = [1, 1]\nclass = 0", fillcolor="#ffffff"] ;
296 -> 297 ;
298 [label="gini = 0.0\nsamples = 1\nvalue = [1, 0]\nclass = 0", fillcolor="#e58139"] ;
297 -> 298 ;
299 [label="gini = 0.0\nsamples = 1\nvalue = [0, 1]\nclass = 1", fillcolor="#399de5"] ;
297 -> 299 ;
300 [label="gini = 0.0\nsamples = 4\nvalue = [4, 0]\nclass = 0", fillcolor="#e58139"] ;
296 -> 300 ;
301 [label="super_dist_8JD <= 0.5\ngini = 0.49\nsamples = 63\nvalue = [27, 36]\nclass = 1", fillcolor="#cee6f8"] ;
9 -> 301 ;
302 [label="sex_Male <= 0.5\ngini = 0.5\nsamples = 54\nvalue = [27, 27]\nclass = 0", fillcolor="#ffffff"] ;
301 -> 302 ;
303 [label="crime_subtype_Assault <= 0.5\ngini = 0.32\nsamples = 10\nvalue = [2, 8]\nclass = 1", fillcolor="#6ab6ec"] ;
302 -> 303 ;
304 [label="crime_subtype_Prostitution/Pimping <= 0.5\ngini = 0.198\nsamples = 9\nvalue = [1, 8]\nclass = 1", fillcolor="#52a9e8"] ;
303 -> 304 ;
305 [label="gini = 0.0\nsamples = 8\nvalue = [0, 8]\nclass = 1", fillcolor="#399de5"] ;
304 -> 305 ;
306 [label="gini = 0.0\nsamples = 1\nvalue = [1, 0]\nclass = 0", fillcolor="#e58139"] ;
304 -> 306 ;
307 [label="gini = 0.0\nsamples = 1\nvalue = [1, 0]\nclass = 0", fillcolor="#e58139"] ;
303 -> 307 ;
308 [label="crime_subtype_OWI <= 0.5\ngini = 0.491\nsamples = 44\nvalue = [25, 19]\nclass = 0", fillcolor="#f9e1cf"] ;
302 -> 308 ;
309 [label="super_dist_6JD <= 0.5\ngini = 0.482\nsamples = 42\nvalue = [25, 17]\nclass = 0", fillcolor="#f7d7c0"] ;
308 -> 309 ;
310 [label="crime_type_Drug <= 0.5\ngini = 0.494\nsamples = 38\nvalue = [21, 17]\nclass = 0", fillcolor="#fae7d9"] ;
309 -> 310 ;
311 [label="crime_class_C Felony <= 0.5\ngini = 0.478\nsamples = 33\nvalue = [20, 13]\nclass = 0", fillcolor="#f6d3ba"] ;
310 -> 311 ;
312 [label="crime_subtype_Forgery/Fraud <= 0.5\ngini = 0.487\nsamples = 31\nvalue = [18, 13]\nclass = 0", fillcolor="#f8dcc8"] ;
311 -> 312 ;
313 [label="crime_subtype_Traffic <= 0.5\ngini = 0.497\nsamples = 26\nvalue = [14, 12]\nclass = 0", fillcolor="#fbede3"] ;
312 -> 313 ;
314 [label="race_ethnicity_White <= 0.5\ngini = 0.499\nsamples = 21\nvalue = [10, 11]\nclass = 1", fillcolor="#edf6fd"] ;
313 -> 314 ;
315 [label="age_enc <= 0.5\ngini = 0.32\nsamples = 5\nvalue = [1, 4]\nclass = 1", fillcolor="#6ab6ec"] ;
314 -> 315 ;
316 [label="gini = 0.0\nsamples = 1\nvalue = [1, 0]\nclass = 0", fillcolor="#e58139"] ;
315 -> 316 ;
317 [label="gini = 0.0\nsamples = 4\nvalue = [0, 4]\nclass = 1", fillcolor="#399de5"] ;
315 -> 317 ;
318 [label="crime_class_D Felony <= 0.5\ngini = 0.492\nsamples = 16\nvalue = [9, 7]\nclass = 0", fillcolor="#f9e3d3"] ;
314 -> 318 ;
319 [label="crime_type_Violent <= 0.5\ngini = 0.5\nsamples = 14\nvalue = [7, 7]\nclass = 0", fillcolor="#ffffff"] ;
318 -> 319 ;
320 [label="crime_subtype_Alcohol <= 0.5\ngini = 0.48\nsamples = 10\nvalue = [4, 6]\nclass = 1", fillcolor="#bddef6"] ;
319 -> 320 ;
321 [label="crime_type_Public Order <= 0.5\ngini = 0.444\nsamples = 9\nvalue = [3, 6]\nclass = 1", fillcolor="#9ccef2"] ;
320 -> 321 ;
322 [label="super_dist_5JD <= 0.5\ngini = 0.469\nsamples = 8\nvalue = [3, 5]\nclass = 1", fillcolor="#b0d8f5"] ;
321 -> 322 ;
323 [label="gini = 0.0\nsamples = 1\nvalue = [0, 1]\nclass = 1", fillcolor="#399de5"] ;
322 -> 323 ;
324 [label="target_pop_No <= 0.5\ngini = 0.49\nsamples = 7\nvalue = [3, 4]\nclass = 1", fillcolor="#cee6f8"] ;
322 -> 324 ;
325 [label="age_number <= 25.0\ngini = 0.444\nsamples = 6\nvalue = [2, 4]\nclass = 1", fillcolor="#9ccef2"] ;
324 -> 325 ;
326 [label="crime_subtype_Burglary <= 0.5\ngini = 0.48\nsamples = 5\nvalue = [2, 3]\nclass = 1", fillcolor="#bddef6"] ;
325 -> 326 ;
327 [label="crime_subtype_Theft <= 0.5\ngini = 0.444\nsamples = 3\nvalue = [1, 2]\nclass = 1", fillcolor="#9ccef2"] ;
326 -> 327 ;
328 [label="gini = 0.0\nsamples = 1\nvalue = [0, 1]\nclass = 1", fillcolor="#399de5"] ;
327 -> 328 ;
329 [label="gini = 0.5\nsamples = 2\nvalue = [1, 1]\nclass = 0", fillcolor="#ffffff"] ;
327 -> 329 ;
330 [label="gini = 0.5\nsamples = 2\nvalue = [1, 1]\nclass = 0", fillcolor="#ffffff"] ;
326 -> 330 ;
331 [label="gini = 0.0\nsamples = 1\nvalue = [0, 1]\nclass = 1", fillcolor="#399de5"] ;
325 -> 331 ;
332 [label="gini = 0.0\nsamples = 1\nvalue = [1, 0]\nclass = 0", fillcolor="#e58139"] ;
324 -> 332 ;
333 [label="gini = 0.0\nsamples = 1\nvalue = [0, 1]\nclass = 1", fillcolor="#399de5"] ;
321 -> 333 ;
334 [label="gini = 0.0\nsamples = 1\nvalue = [1, 0]\nclass = 0", fillcolor="#e58139"] ;
320 -> 334 ;
335 [label="age_number <= 25.0\ngini = 0.375\nsamples = 4\nvalue = [3, 1]\nclass = 0", fillcolor="#eeab7b"] ;
319 -> 335 ;
336 [label="gini = 0.0\nsamples = 2\nvalue = [2, 0]\nclass = 0", fillcolor="#e58139"] ;
335 -> 336 ;
337 [label="crime_subtype_Assault <= 0.5\ngini = 0.5\nsamples = 2\nvalue = [1, 1]\nclass = 0", fillcolor="#ffffff"] ;
335 -> 337 ;
338 [label="gini = 0.0\nsamples = 1\nvalue = [1, 0]\nclass = 0", fillcolor="#e58139"] ;
337 -> 338 ;
339 [label="gini = 0.0\nsamples = 1\nvalue = [0, 1]\nclass = 1", fillcolor="#399de5"] ;
337 -> 339 ;
340 [label="gini = 0.0\nsamples = 2\nvalue = [2, 0]\nclass = 0", fillcolor="#e58139"] ;
318 -> 340 ;
341 [label="race_ethnicity_White <= 0.5\ngini = 0.32\nsamples = 5\nvalue = [4, 1]\nclass = 0", fillcolor="#eca06a"] ;
313 -> 341 ;
342 [label="gini = 0.0\nsamples = 4\nvalue = [4, 0]\nclass = 0", fillcolor="#e58139"] ;
341 -> 342 ;
343 [label="gini = 0.0\nsamples = 1\nvalue = [0, 1]\nclass = 1", fillcolor="#399de5"] ;
341 -> 343 ;
344 [label="crime_class_Aggravated Misdemeanor <= 0.5\ngini = 0.32\nsamples = 5\nvalue = [4, 1]\nclass = 0", fillcolor="#eca06a"] ;
312 -> 344 ;
345 [label="gini = 0.0\nsamples = 1\nvalue = [0, 1]\nclass = 1", fillcolor="#399de5"] ;
344 -> 345 ;
346 [label="gini = 0.0\nsamples = 4\nvalue = [4, 0]\nclass = 0", fillcolor="#e58139"] ;
344 -> 346 ;
347 [label="gini = 0.0\nsamples = 2\nvalue = [2, 0]\nclass = 0", fillcolor="#e58139"] ;
311 -> 347 ;
348 [label="race_ethnicity_Black <= 0.5\ngini = 0.32\nsamples = 5\nvalue = [1, 4]\nclass = 1", fillcolor="#6ab6ec"] ;
310 -> 348 ;
349 [label="gini = 0.0\nsamples = 4\nvalue = [0, 4]\nclass = 1", fillcolor="#399de5"] ;
348 -> 349 ;
350 [label="gini = 0.0\nsamples = 1\nvalue = [1, 0]\nclass = 0", fillcolor="#e58139"] ;
348 -> 350 ;
351 [label="gini = 0.0\nsamples = 4\nvalue = [4, 0]\nclass = 0", fillcolor="#e58139"] ;
309 -> 351 ;
352 [label="gini = 0.0\nsamples = 2\nvalue = [0, 2]\nclass = 1", fillcolor="#399de5"] ;
308 -> 352 ;
353 [label="gini = 0.0\nsamples = 9\nvalue = [0, 9]\nclass = 1", fillcolor="#399de5"] ;
301 -> 353 ;
354 [label="crime_class_C Felony <= 0.5\ngini = 0.45\nsamples = 275\nvalue = [94, 181]\nclass = 1", fillcolor="#a0d0f3"] ;
8 -> 354 ;
355 [label="crime_type_Other <= 0.5\ngini = 0.435\nsamples = 257\nvalue = [82, 175]\nclass = 1", fillcolor="#96cbf1"] ;
354 -> 355 ;
356 [label="super_dist_8JD <= 0.5\ngini = 0.427\nsamples = 252\nvalue = [78, 174]\nclass = 1", fillcolor="#92c9f1"] ;
355 -> 356 ;
357 [label="crime_subtype_Trafficking <= 0.5\ngini = 0.414\nsamples = 236\nvalue = [69, 167]\nclass = 1", fillcolor="#8bc5f0"] ;
356 -> 357 ;
358 [label="super_dist_1JD <= 0.5\ngini = 0.399\nsamples = 225\nvalue = [62, 163]\nclass = 1", fillcolor="#84c2ef"] ;
357 -> 358 ;
359 [label="race_ethnicity_White <= 0.5\ngini = 0.376\nsamples = 199\nvalue = [50, 149]\nclass = 1", fillcolor="#7bbeee"] ;
358 -> 359 ;
360 [label="super_dist_3JD <= 0.5\ngini = 0.469\nsamples = 48\nvalue = [18, 30]\nclass = 1", fillcolor="#b0d8f5"] ;
359 -> 360 ;
361 [label="crime_class_Aggravated Misdemeanor <= 0.5\ngini = 0.426\nsamples = 39\nvalue = [12, 27]\nclass = 1", fillcolor="#91c9f1"] ;
360 -> 361 ;
362 [label="super_dist_6JD <= 0.5\ngini = 0.142\nsamples = 13\nvalue = [1, 12]\nclass = 1", fillcolor="#49a5e7"] ;
361 -> 362 ;
363 [label="gini = 0.0\nsamples = 11\nvalue = [0, 11]\nclass = 1", fillcolor="#399de5"] ;
362 -> 363 ;
364 [label="crime_subtype_Assault <= 0.5\ngini = 0.5\nsamples = 2\nvalue = [1, 1]\nclass = 0", fillcolor="#ffffff"] ;
362 -> 364 ;
365 [label="gini = 0.0\nsamples = 1\nvalue = [1, 0]\nclass = 0", fillcolor="#e58139"] ;
364 -> 365 ;
366 [label="gini = 0.0\nsamples = 1\nvalue = [0, 1]\nclass = 1", fillcolor="#399de5"] ;
364 -> 366 ;
367 [label="age_number <= 25.0\ngini = 0.488\nsamples = 26\nvalue = [11, 15]\nclass = 1", fillcolor="#cae5f8"] ;
361 -> 367 ;
368 [label="crime_subtype_Burglary <= 0.5\ngini = 0.463\nsamples = 11\nvalue = [7, 4]\nclass = 0", fillcolor="#f4c9aa"] ;
367 -> 368 ;
369 [label="crime_subtype_Vandalism <= 0.5\ngini = 0.42\nsamples = 10\nvalue = [7, 3]\nclass = 0", fillcolor="#f0b78e"] ;
368 -> 369 ;
370 [label="sex_Male <= 0.5\ngini = 0.346\nsamples = 9\nvalue = [7, 2]\nclass = 0", fillcolor="#eca572"] ;
369 -> 370 ;
371 [label="race_ethnicity_Black <= 0.5\ngini = 0.5\nsamples = 2\nvalue = [1, 1]\nclass = 0", fillcolor="#ffffff"] ;
370 -> 371 ;
372 [label="gini = 0.0\nsamples = 1\nvalue = [0, 1]\nclass = 1", fillcolor="#399de5"] ;
371 -> 372 ;
373 [label="gini = 0.0\nsamples = 1\nvalue = [1, 0]\nclass = 0", fillcolor="#e58139"] ;
371 -> 373 ;
374 [label="crime_subtype_Weapons <= 0.5\ngini = 0.245\nsamples = 7\nvalue = [6, 1]\nclass = 0", fillcolor="#e9965a"] ;
370 -> 374 ;
375 [label="gini = 0.0\nsamples = 5\nvalue = [5, 0]\nclass = 0", fillcolor="#e58139"] ;
374 -> 375 ;
376 [label="gini = 0.5\nsamples = 2\nvalue = [1, 1]\nclass = 0", fillcolor="#ffffff"] ;
374 -> 376 ;
377 [label="gini = 0.0\nsamples = 1\nvalue = [0, 1]\nclass = 1", fillcolor="#399de5"] ;
369 -> 377 ;
378 [label="gini = 0.0\nsamples = 1\nvalue = [0, 1]\nclass = 1", fillcolor="#399de5"] ;
368 -> 378 ;
379 [label="super_dist_6JD <= 0.5\ngini = 0.391\nsamples = 15\nvalue = [4, 11]\nclass = 1", fillcolor="#81c1ee"] ;
367 -> 379 ;
380 [label="crime_type_Violent <= 0.5\ngini = 0.337\nsamples = 14\nvalue = [3, 11]\nclass = 1", fillcolor="#6fb8ec"] ;
379 -> 380 ;
381 [label="gini = 0.0\nsamples = 5\nvalue = [0, 5]\nclass = 1", fillcolor="#399de5"] ;
380 -> 381 ;
382 [label="race_ethnicity_Hispanic <= 0.5\ngini = 0.444\nsamples = 9\nvalue = [3, 6]\nclass = 1", fillcolor="#9ccef2"] ;
380 -> 382 ;
383 [label="super_dist_5JD <= 0.5\ngini = 0.375\nsamples = 8\nvalue = [2, 6]\nclass = 1", fillcolor="#7bbeee"] ;
382 -> 383 ;
384 [label="gini = 0.0\nsamples = 4\nvalue = [0, 4]\nclass = 1", fillcolor="#399de5"] ;
383 -> 384 ;
385 [label="target_pop_No <= 0.5\ngini = 0.5\nsamples = 4\nvalue = [2, 2]\nclass = 0", fillcolor="#ffffff"] ;
383 -> 385 ;
386 [label="gini = 0.444\nsamples = 3\nvalue = [2, 1]\nclass = 0", fillcolor="#f2c09c"] ;
385 -> 386 ;
387 [label="gini = 0.0\nsamples = 1\nvalue = [0, 1]\nclass = 1", fillcolor="#399de5"] ;
385 -> 387 ;
388 [label="gini = 0.0\nsamples = 1\nvalue = [1, 0]\nclass = 0", fillcolor="#e58139"] ;
382 -> 388 ;
389 [label="gini = 0.0\nsamples = 1\nvalue = [1, 0]\nclass = 0", fillcolor="#e58139"] ;
379 -> 389 ;
390 [label="crime_type_Property <= 0.5\ngini = 0.444\nsamples = 9\nvalue = [6, 3]\nclass = 0", fillcolor="#f2c09c"] ;
360 -> 390 ;
391 [label="gini = 0.0\nsamples = 5\nvalue = [5, 0]\nclass = 0", fillcolor="#e58139"] ;
390 -> 391 ;
392 [label="crime_subtype_Vandalism <= 0.5\ngini = 0.375\nsamples = 4\nvalue = [1, 3]\nclass = 1", fillcolor="#7bbeee"] ;
390 -> 392 ;
393 [label="gini = 0.0\nsamples = 3\nvalue = [0, 3]\nclass = 1", fillcolor="#399de5"] ;
392 -> 393 ;
394 [label="gini = 0.0\nsamples = 1\nvalue = [1, 0]\nclass = 0", fillcolor="#e58139"] ;
392 -> 394 ;
395 [label="super_dist_5JD <= 0.5\ngini = 0.334\nsamples = 151\nvalue = [32, 119]\nclass = 1", fillcolor="#6eb7ec"] ;
359 -> 395 ;
396 [label="super_dist_4JD <= 0.5\ngini = 0.264\nsamples = 96\nvalue = [15, 81]\nclass = 1", fillcolor="#5eafea"] ;
395 -> 396 ;
397 [label="crime_subtype_OWI <= 0.5\ngini = 0.212\nsamples = 83\nvalue = [10, 73]\nclass = 1", fillcolor="#54aae9"] ;
396 -> 397 ;
398 [label="crime_subtype_Kidnap <= 0.5\ngini = 0.195\nsamples = 82\nvalue = [9, 73]\nclass = 1", fillcolor="#51a9e8"] ;
397 -> 398 ;
399 [label="crime_subtype_Drug Possession <= 0.5\ngini = 0.178\nsamples = 81\nvalue = [8, 73]\nclass = 1", fillcolor="#4fa8e8"] ;
398 -> 399 ;
400 [label="age_number <= 25.0\ngini = 0.145\nsamples = 76\nvalue = [6, 70]\nclass = 1", fillcolor="#4aa5e7"] ;
399 -> 400 ;
401 [label="crime_subtype_Assault <= 0.5\ngini = 0.053\nsamples = 37\nvalue = [1, 36]\nclass = 1", fillcolor="#3ea0e6"] ;
400 -> 401 ;
402 [label="gini = 0.0\nsamples = 31\nvalue = [0, 31]\nclass = 1", fillcolor="#399de5"] ;
401 -> 402 ;
403 [label="super_dist_2JD <= 0.5\ngini = 0.278\nsamples = 6\nvalue = [1, 5]\nclass = 1", fillcolor="#61b1ea"] ;
401 -> 403 ;
404 [label="gini = 0.0\nsamples = 4\nvalue = [0, 4]\nclass = 1", fillcolor="#399de5"] ;
403 -> 404 ;
405 [label="gini = 0.5\nsamples = 2\nvalue = [1, 1]\nclass = 0", fillcolor="#ffffff"] ;
403 -> 405 ;
406 [label="target_pop_No <= 0.5\ngini = 0.224\nsamples = 39\nvalue = [5, 34]\nclass = 1", fillcolor="#56abe9"] ;
400 -> 406 ;
407 [label="super_dist_2JD <= 0.5\ngini = 0.271\nsamples = 31\nvalue = [5, 26]\nclass = 1", fillcolor="#5fb0ea"] ;
406 -> 407 ;
408 [label="super_dist_3JD <= 0.5\ngini = 0.188\nsamples = 19\nvalue = [2, 17]\nclass = 1", fillcolor="#50a9e8"] ;
407 -> 408 ;
409 [label="crime_subtype_Theft <= 0.5\ngini = 0.117\nsamples = 16\nvalue = [1, 15]\nclass = 1", fillcolor="#46a4e7"] ;
408 -> 409 ;
410 [label="gini = 0.0\nsamples = 12\nvalue = [0, 12]\nclass = 1", fillcolor="#399de5"] ;
409 -> 410 ;
411 [label="crime_class_D Felony <= 0.5\ngini = 0.375\nsamples = 4\nvalue = [1, 3]\nclass = 1", fillcolor="#7bbeee"] ;
409 -> 411 ;
412 [label="gini = 0.0\nsamples = 2\nvalue = [0, 2]\nclass = 1", fillcolor="#399de5"] ;
411 -> 412 ;
413 [label="gini = 0.5\nsamples = 2\nvalue = [1, 1]\nclass = 0", fillcolor="#ffffff"] ;
411 -> 413 ;
414 [label="crime_subtype_Vandalism <= 0.5\ngini = 0.444\nsamples = 3\nvalue = [1, 2]\nclass = 1", fillcolor="#9ccef2"] ;
408 -> 414 ;
415 [label="gini = 0.5\nsamples = 2\nvalue = [1, 1]\nclass = 0", fillcolor="#ffffff"] ;
414 -> 415 ;
416 [label="gini = 0.0\nsamples = 1\nvalue = [0, 1]\nclass = 1", fillcolor="#399de5"] ;
414 -> 416 ;
417 [label="crime_subtype_Forgery/Fraud <= 0.5\ngini = 0.375\nsamples = 12\nvalue = [3, 9]\nclass = 1", fillcolor="#7bbeee"] ;
407 -> 417 ;
418 [label="crime_subtype_Assault <= 0.5\ngini = 0.298\nsamples = 11\nvalue = [2, 9]\nclass = 1", fillcolor="#65b3eb"] ;
417 -> 418 ;
419 [label="crime_class_Aggravated Misdemeanor <= 0.5\ngini = 0.219\nsamples = 8\nvalue = [1, 7]\nclass = 1", fillcolor="#55abe9"] ;
418 -> 419 ;
420 [label="gini = 0.0\nsamples = 6\nvalue = [0, 6]\nclass = 1", fillcolor="#399de5"] ;
419 -> 420 ;
421 [label="crime_subtype_Theft <= 0.5\ngini = 0.5\nsamples = 2\nvalue = [1, 1]\nclass = 0", fillcolor="#ffffff"] ;
419 -> 421 ;
422 [label="gini = 0.0\nsamples = 1\nvalue = [1, 0]\nclass = 0", fillcolor="#e58139"] ;
421 -> 422 ;
423 [label="gini = 0.0\nsamples = 1\nvalue = [0, 1]\nclass = 1", fillcolor="#399de5"] ;
421 -> 423 ;
424 [label="crime_class_D Felony <= 0.5\ngini = 0.444\nsamples = 3\nvalue = [1, 2]\nclass = 1", fillcolor="#9ccef2"] ;
418 -> 424 ;
425 [label="gini = 0.0\nsamples = 2\nvalue = [0, 2]\nclass = 1", fillcolor="#399de5"] ;
424 -> 425 ;
426 [label="gini = 0.0\nsamples = 1\nvalue = [1, 0]\nclass = 0", fillcolor="#e58139"] ;
424 -> 426 ;
427 [label="gini = 0.0\nsamples = 1\nvalue = [1, 0]\nclass = 0", fillcolor="#e58139"] ;
417 -> 427 ;
428 [label="gini = 0.0\nsamples = 8\nvalue = [0, 8]\nclass = 1", fillcolor="#399de5"] ;
406 -> 428 ;
429 [label="target_pop_No <= 0.5\ngini = 0.48\nsamples = 5\nvalue = [2, 3]\nclass = 1", fillcolor="#bddef6"] ;
399 -> 429 ;
430 [label="gini = 0.0\nsamples = 2\nvalue = [0, 2]\nclass = 1", fillcolor="#399de5"] ;
429 -> 430 ;
431 [label="super_dist_2JD <= 0.5\ngini = 0.444\nsamples = 3\nvalue = [2, 1]\nclass = 0", fillcolor="#f2c09c"] ;
429 -> 431 ;
432 [label="gini = 0.0\nsamples = 1\nvalue = [1, 0]\nclass = 0", fillcolor="#e58139"] ;
431 -> 432 ;
433 [label="gini = 0.5\nsamples = 2\nvalue = [1, 1]\nclass = 0", fillcolor="#ffffff"] ;
431 -> 433 ;
434 [label="gini = 0.0\nsamples = 1\nvalue = [1, 0]\nclass = 0", fillcolor="#e58139"] ;
398 -> 434 ;
435 [label="gini = 0.0\nsamples = 1\nvalue = [1, 0]\nclass = 0", fillcolor="#e58139"] ;
397 -> 435 ;
436 [label="sex_Male <= 0.5\ngini = 0.473\nsamples = 13\nvalue = [5, 8]\nclass = 1", fillcolor="#b5daf5"] ;
396 -> 436 ;
437 [label="gini = 0.0\nsamples = 1\nvalue = [1, 0]\nclass = 0", fillcolor="#e58139"] ;
436 -> 437 ;
438 [label="crime_subtype_Vandalism <= 0.5\ngini = 0.444\nsamples = 12\nvalue = [4, 8]\nclass = 1", fillcolor="#9ccef2"] ;
436 -> 438 ;
439 [label="crime_subtype_Theft <= 0.5\ngini = 0.397\nsamples = 11\nvalue = [3, 8]\nclass = 1", fillcolor="#83c2ef"] ;
438 -> 439 ;
440 [label="age_enc <= 0.5\ngini = 0.32\nsamples = 10\nvalue = [2, 8]\nclass = 1", fillcolor="#6ab6ec"] ;
439 -> 440 ;
441 [label="gini = 0.0\nsamples = 2\nvalue = [0, 2]\nclass = 1", fillcolor="#399de5"] ;
440 -> 441 ;
442 [label="crime_subtype_Burglary <= 0.5\ngini = 0.375\nsamples = 8\nvalue = [2, 6]\nclass = 1", fillcolor="#7bbeee"] ;
440 -> 442 ;
443 [label="crime_subtype_Forgery/Fraud <= 0.5\ngini = 0.245\nsamples = 7\nvalue = [1, 6]\nclass = 1", fillcolor="#5aade9"] ;
442 -> 443 ;
444 [label="gini = 0.0\nsamples = 2\nvalue = [0, 2]\nclass = 1", fillcolor="#399de5"] ;
443 -> 444 ;
445 [label="gini = 0.32\nsamples = 5\nvalue = [1, 4]\nclass = 1", fillcolor="#6ab6ec"] ;
443 -> 445 ;
446 [label="gini = 0.0\nsamples = 1\nvalue = [1, 0]\nclass = 0", fillcolor="#e58139"] ;
442 -> 446 ;
447 [label="gini = 0.0\nsamples = 1\nvalue = [1, 0]\nclass = 0", fillcolor="#e58139"] ;
439 -> 447 ;
448 [label="gini = 0.0\nsamples = 1\nvalue = [1, 0]\nclass = 0", fillcolor="#e58139"] ;
438 -> 448 ;
449 [label="crime_class_Aggravated Misdemeanor <= 0.5\ngini = 0.427\nsamples = 55\nvalue = [17, 38]\nclass = 1", fillcolor="#92c9f1"] ;
395 -> 449 ;
450 [label="crime_type_Public Order <= 0.5\ngini = 0.48\nsamples = 10\nvalue = [6, 4]\nclass = 0", fillcolor="#f6d5bd"] ;
449 -> 450 ;
451 [label="crime_subtype_Theft <= 0.5\ngini = 0.444\nsamples = 9\nvalue = [6, 3]\nclass = 0", fillcolor="#f2c09c"] ;
450 -> 451 ;
452 [label="age_number <= 25.0\ngini = 0.375\nsamples = 8\nvalue = [6, 2]\nclass = 0", fillcolor="#eeab7b"] ;
451 -> 452 ;
453 [label="gini = 0.0\nsamples = 2\nvalue = [2, 0]\nclass = 0", fillcolor="#e58139"] ;
452 -> 453 ;
454 [label="crime_subtype_Assault <= 0.5\ngini = 0.444\nsamples = 6\nvalue = [4, 2]\nclass = 0", fillcolor="#f2c09c"] ;
452 -> 454 ;
455 [label="crime_type_Violent <= 0.5\ngini = 0.5\nsamples = 4\nvalue = [2, 2]\nclass = 0", fillcolor="#ffffff"] ;
454 -> 455 ;
456 [label="crime_subtype_Forgery/Fraud <= 0.5\ngini = 0.444\nsamples = 3\nvalue = [2, 1]\nclass = 0", fillcolor="#f2c09c"] ;
455 -> 456 ;
457 [label="gini = 0.5\nsamples = 2\nvalue = [1, 1]\nclass = 0", fillcolor="#ffffff"] ;
456 -> 457 ;
458 [label="gini = 0.0\nsamples = 1\nvalue = [1, 0]\nclass = 0", fillcolor="#e58139"] ;
456 -> 458 ;
459 [label="gini = 0.0\nsamples = 1\nvalue = [0, 1]\nclass = 1", fillcolor="#399de5"] ;
455 -> 459 ;
460 [label="gini = 0.0\nsamples = 2\nvalue = [2, 0]\nclass = 0", fillcolor="#e58139"] ;
454 -> 460 ;
461 [label="gini = 0.0\nsamples = 1\nvalue = [0, 1]\nclass = 1", fillcolor="#399de5"] ;
451 -> 461 ;
462 [label="gini = 0.0\nsamples = 1\nvalue = [0, 1]\nclass = 1", fillcolor="#399de5"] ;
450 -> 462 ;
463 [label="target_pop_Yes <= 0.5\ngini = 0.369\nsamples = 45\nvalue = [11, 34]\nclass = 1", fillcolor="#79bded"] ;
449 -> 463 ;
464 [label="crime_subtype_Weapons <= 0.5\ngini = 0.375\nsamples = 4\nvalue = [3, 1]\nclass = 0", fillcolor="#eeab7b"] ;
463 -> 464 ;
465 [label="gini = 0.0\nsamples = 3\nvalue = [3, 0]\nclass = 0", fillcolor="#e58139"] ;
464 -> 465 ;
466 [label="gini = 0.0\nsamples = 1\nvalue = [0, 1]\nclass = 1", fillcolor="#399de5"] ;
464 -> 466 ;
467 [label="crime_subtype_Weapons <= 0.5\ngini = 0.314\nsamples = 41\nvalue = [8, 33]\nclass = 1", fillcolor="#69b5eb"] ;
463 -> 467 ;
468 [label="crime_subtype_Assault <= 0.5\ngini = 0.289\nsamples = 40\nvalue = [7, 33]\nclass = 1", fillcolor="#63b2eb"] ;
467 -> 468 ;
469 [label="crime_subtype_Theft <= 0.5\ngini = 0.117\nsamples = 16\nvalue = [1, 15]\nclass = 1", fillcolor="#46a4e7"] ;
468 -> 469 ;
470 [label="gini = 0.0\nsamples = 13\nvalue = [0, 13]\nclass = 1", fillcolor="#399de5"] ;
469 -> 470 ;
471 [label="sex_Male <= 0.5\ngini = 0.444\nsamples = 3\nvalue = [1, 2]\nclass = 1", fillcolor="#9ccef2"] ;
469 -> 471 ;
472 [label="gini = 0.0\nsamples = 1\nvalue = [0, 1]\nclass = 1", fillcolor="#399de5"] ;
471 -> 472 ;
473 [label="gini = 0.5\nsamples = 2\nvalue = [1, 1]\nclass = 0", fillcolor="#ffffff"] ;
471 -> 473 ;
474 [label="age_enc <= 0.5\ngini = 0.375\nsamples = 24\nvalue = [6, 18]\nclass = 1", fillcolor="#7bbeee"] ;
468 -> 474 ;
475 [label="gini = 0.32\nsamples = 15\nvalue = [3, 12]\nclass = 1", fillcolor="#6ab6ec"] ;
474 -> 475 ;
476 [label="gini = 0.444\nsamples = 9\nvalue = [3, 6]\nclass = 1", fillcolor="#9ccef2"] ;
474 -> 476 ;
477 [label="gini = 0.0\nsamples = 1\nvalue = [1, 0]\nclass = 0", fillcolor="#e58139"] ;
467 -> 477 ;
478 [label="race_ethnicity_White <= 0.5\ngini = 0.497\nsamples = 26\nvalue = [12, 14]\nclass = 1", fillcolor="#e3f1fb"] ;
358 -> 478 ;
479 [label="crime_subtype_Other Violent <= 0.5\ngini = 0.346\nsamples = 9\nvalue = [2, 7]\nclass = 1", fillcolor="#72b9ec"] ;
478 -> 479 ;
480 [label="crime_class_Aggravated Misdemeanor <= 0.5\ngini = 0.219\nsamples = 8\nvalue = [1, 7]\nclass = 1", fillcolor="#55abe9"] ;
479 -> 480 ;
481 [label="crime_subtype_Drug Possession <= 0.5\ngini = 0.5\nsamples = 2\nvalue = [1, 1]\nclass = 0", fillcolor="#ffffff"] ;
480 -> 481 ;
482 [label="gini = 0.0\nsamples = 1\nvalue = [1, 0]\nclass = 0", fillcolor="#e58139"] ;
481 -> 482 ;
483 [label="gini = 0.0\nsamples = 1\nvalue = [0, 1]\nclass = 1", fillcolor="#399de5"] ;
481 -> 483 ;
484 [label="gini = 0.0\nsamples = 6\nvalue = [0, 6]\nclass = 1", fillcolor="#399de5"] ;
480 -> 484 ;
485 [label="gini = 0.0\nsamples = 1\nvalue = [1, 0]\nclass = 0", fillcolor="#e58139"] ;
479 -> 485 ;
486 [label="target_pop_Yes <= 0.5\ngini = 0.484\nsamples = 17\nvalue = [10, 7]\nclass = 0", fillcolor="#f7d9c4"] ;
478 -> 486 ;
487 [label="gini = 0.0\nsamples = 2\nvalue = [2, 0]\nclass = 0", fillcolor="#e58139"] ;
486 -> 487 ;
488 [label="crime_type_Public Order <= 0.5\ngini = 0.498\nsamples = 15\nvalue = [8, 7]\nclass = 0", fillcolor="#fcefe6"] ;
486 -> 488 ;
489 [label="crime_subtype_Forgery/Fraud <= 0.5\ngini = 0.49\nsamples = 14\nvalue = [8, 6]\nclass = 0", fillcolor="#f8e0ce"] ;
488 -> 489 ;
490 [label="sex_Female <= 0.5\ngini = 0.473\nsamples = 13\nvalue = [8, 5]\nclass = 0", fillcolor="#f5d0b5"] ;
489 -> 490 ;
491 [label="crime_type_Violent <= 0.5\ngini = 0.496\nsamples = 11\nvalue = [6, 5]\nclass = 0", fillcolor="#fbeade"] ;
490 -> 491 ;
492 [label="age_enc <= 0.5\ngini = 0.375\nsamples = 4\nvalue = [3, 1]\nclass = 0", fillcolor="#eeab7b"] ;
491 -> 492 ;
493 [label="gini = 0.5\nsamples = 2\nvalue = [1, 1]\nclass = 0", fillcolor="#ffffff"] ;
492 -> 493 ;
494 [label="gini = 0.0\nsamples = 2\nvalue = [2, 0]\nclass = 0", fillcolor="#e58139"] ;
492 -> 494 ;
495 [label="crime_class_Aggravated Misdemeanor <= 0.5\ngini = 0.49\nsamples = 7\nvalue = [3, 4]\nclass = 1", fillcolor="#cee6f8"] ;
491 -> 495 ;
496 [label="gini = 0.0\nsamples = 1\nvalue = [1, 0]\nclass = 0", fillcolor="#e58139"] ;
495 -> 496 ;
497 [label="age_number <= 25.0\ngini = 0.444\nsamples = 6\nvalue = [2, 4]\nclass = 1", fillcolor="#9ccef2"] ;
495 -> 497 ;
498 [label="gini = 0.444\nsamples = 3\nvalue = [1, 2]\nclass = 1", fillcolor="#9ccef2"] ;
497 -> 498 ;
499 [label="gini = 0.444\nsamples = 3\nvalue = [1, 2]\nclass = 1", fillcolor="#9ccef2"] ;
497 -> 499 ;
500 [label="gini = 0.0\nsamples = 2\nvalue = [2, 0]\nclass = 0", fillcolor="#e58139"] ;
490 -> 500 ;
501 [label="gini = 0.0\nsamples = 1\nvalue = [0, 1]\nclass = 1", fillcolor="#399de5"] ;
489 -> 501 ;
502 [label="gini = 0.0\nsamples = 1\nvalue = [0, 1]\nclass = 1", fillcolor="#399de5"] ;
488 -> 502 ;
503 [label="race_ethnicity_Black <= 0.5\ngini = 0.463\nsamples = 11\nvalue = [7, 4]\nclass = 0", fillcolor="#f4c9aa"] ;
357 -> 503 ;
504 [label="super_dist_1JD <= 0.5\ngini = 0.49\nsamples = 7\nvalue = [3, 4]\nclass = 1", fillcolor="#cee6f8"] ;
503 -> 504 ;
505 [label="age_enc <= 0.5\ngini = 0.444\nsamples = 6\nvalue = [2, 4]\nclass = 1", fillcolor="#9ccef2"] ;
504 -> 505 ;
506 [label="target_pop_Yes <= 0.5\ngini = 0.444\nsamples = 3\nvalue = [2, 1]\nclass = 0", fillcolor="#f2c09c"] ;
505 -> 506 ;
507 [label="gini = 0.0\nsamples = 1\nvalue = [1, 0]\nclass = 0", fillcolor="#e58139"] ;
506 -> 507 ;
508 [label="super_dist_5JD <= 0.5\ngini = 0.5\nsamples = 2\nvalue = [1, 1]\nclass = 0", fillcolor="#ffffff"] ;
506 -> 508 ;
509 [label="gini = 0.0\nsamples = 1\nvalue = [1, 0]\nclass = 0", fillcolor="#e58139"] ;
508 -> 509 ;
510 [label="gini = 0.0\nsamples = 1\nvalue = [0, 1]\nclass = 1", fillcolor="#399de5"] ;
508 -> 510 ;
511 [label="gini = 0.0\nsamples = 3\nvalue = [0, 3]\nclass = 1", fillcolor="#399de5"] ;
505 -> 511 ;
512 [label="gini = 0.0\nsamples = 1\nvalue = [1, 0]\nclass = 0", fillcolor="#e58139"] ;
504 -> 512 ;
513 [label="gini = 0.0\nsamples = 4\nvalue = [4, 0]\nclass = 0", fillcolor="#e58139"] ;
503 -> 513 ;
514 [label="crime_type_Drug <= 0.5\ngini = 0.492\nsamples = 16\nvalue = [9, 7]\nclass = 0", fillcolor="#f9e3d3"] ;
356 -> 514 ;
515 [label="crime_subtype_Vandalism <= 0.5\ngini = 0.375\nsamples = 12\nvalue = [9, 3]\nclass = 0", fillcolor="#eeab7b"] ;
514 -> 515 ;
516 [label="crime_class_Aggravated Misdemeanor <= 0.5\ngini = 0.298\nsamples = 11\nvalue = [9, 2]\nclass = 0", fillcolor="#eb9d65"] ;
515 -> 516 ;
517 [label="gini = 0.0\nsamples = 7\nvalue = [7, 0]\nclass = 0", fillcolor="#e58139"] ;
516 -> 517 ;
518 [label="age_number <= 25.0\ngini = 0.5\nsamples = 4\nvalue = [2, 2]\nclass = 0", fillcolor="#ffffff"] ;
516 -> 518 ;
519 [label="gini = 0.0\nsamples = 1\nvalue = [1, 0]\nclass = 0", fillcolor="#e58139"] ;
518 -> 519 ;
520 [label="gini = 0.444\nsamples = 3\nvalue = [1, 2]\nclass = 1", fillcolor="#9ccef2"] ;
518 -> 520 ;
521 [label="gini = 0.0\nsamples = 1\nvalue = [0, 1]\nclass = 1", fillcolor="#399de5"] ;
515 -> 521 ;
522 [label="gini = 0.0\nsamples = 4\nvalue = [0, 4]\nclass = 1", fillcolor="#399de5"] ;
514 -> 522 ;
523 [label="super_dist_1JD <= 0.5\ngini = 0.32\nsamples = 5\nvalue = [4, 1]\nclass = 0", fillcolor="#eca06a"] ;
355 -> 523 ;
524 [label="gini = 0.0\nsamples = 4\nvalue = [4, 0]\nclass = 0", fillcolor="#e58139"] ;
523 -> 524 ;
525 [label="gini = 0.0\nsamples = 1\nvalue = [0, 1]\nclass = 1", fillcolor="#399de5"] ;
523 -> 525 ;
526 [label="crime_subtype_Burglary <= 0.5\ngini = 0.444\nsamples = 18\nvalue = [12, 6]\nclass = 0", fillcolor="#f2c09c"] ;
354 -> 526 ;
527 [label="race_ethnicity_Black <= 0.5\ngini = 0.497\nsamples = 13\nvalue = [7, 6]\nclass = 0", fillcolor="#fbede3"] ;
526 -> 527 ;
528 [label="super_dist_4JD <= 0.5\ngini = 0.496\nsamples = 11\nvalue = [5, 6]\nclass = 1", fillcolor="#deeffb"] ;
527 -> 528 ;
529 [label="sex_Male <= 0.5\ngini = 0.48\nsamples = 10\nvalue = [4, 6]\nclass = 1", fillcolor="#bddef6"] ;
528 -> 529 ;
530 [label="gini = 0.0\nsamples = 1\nvalue = [0, 1]\nclass = 1", fillcolor="#399de5"] ;
529 -> 530 ;
531 [label="super_dist_5JD <= 0.5\ngini = 0.494\nsamples = 9\nvalue = [4, 5]\nclass = 1", fillcolor="#d7ebfa"] ;
529 -> 531 ;
532 [label="super_dist_8JD <= 0.5\ngini = 0.375\nsamples = 4\nvalue = [1, 3]\nclass = 1", fillcolor="#7bbeee"] ;
531 -> 532 ;
533 [label="gini = 0.0\nsamples = 2\nvalue = [0, 2]\nclass = 1", fillcolor="#399de5"] ;
532 -> 533 ;
534 [label="gini = 0.5\nsamples = 2\nvalue = [1, 1]\nclass = 0", fillcolor="#ffffff"] ;
532 -> 534 ;
535 [label="crime_subtype_Theft <= 0.5\ngini = 0.48\nsamples = 5\nvalue = [3, 2]\nclass = 0", fillcolor="#f6d5bd"] ;
531 -> 535 ;
536 [label="target_pop_No <= 0.5\ngini = 0.5\nsamples = 4\nvalue = [2, 2]\nclass = 0", fillcolor="#ffffff"] ;
535 -> 536 ;
537 [label="gini = 0.0\nsamples = 1\nvalue = [0, 1]\nclass = 1", fillcolor="#399de5"] ;
536 -> 537 ;
538 [label="gini = 0.444\nsamples = 3\nvalue = [2, 1]\nclass = 0", fillcolor="#f2c09c"] ;
536 -> 538 ;
539 [label="gini = 0.0\nsamples = 1\nvalue = [1, 0]\nclass = 0", fillcolor="#e58139"] ;
535 -> 539 ;
540 [label="gini = 0.0\nsamples = 1\nvalue = [1, 0]\nclass = 0", fillcolor="#e58139"] ;
528 -> 540 ;
541 [label="gini = 0.0\nsamples = 2\nvalue = [2, 0]\nclass = 0", fillcolor="#e58139"] ;
527 -> 541 ;
542 [label="gini = 0.0\nsamples = 5\nvalue = [5, 0]\nclass = 0", fillcolor="#e58139"] ;
526 -> 542 ;
543 [label="target_pop_No <= 0.5\ngini = 0.458\nsamples = 2504\nvalue = [889, 1615]\nclass = 1", fillcolor="#a6d3f3"] ;
7 -> 543 ;
544 [label="crime_class_Aggravated Misdemeanor <= 0.5\ngini = 0.445\nsamples = 2235\nvalue = [748, 1487]\nclass = 1", fillcolor="#9dcef2"] ;
543 -> 544 ;
545 [label="crime_subtype_Other Violent <= 0.5\ngini = 0.435\nsamples = 2073\nvalue = [664, 1409]\nclass = 1", fillcolor="#96cbf1"] ;
544 -> 545 ;
546 [label="crime_subtype_Arson <= 0.5\ngini = 0.429\nsamples = 1996\nvalue = [622, 1374]\nclass = 1", fillcolor="#93c9f1"] ;
545 -> 546 ;
547 [label="super_dist_8JD <= 0.5\ngini = 0.427\nsamples = 1986\nvalue = [613, 1373]\nclass = 1", fillcolor="#91c9f1"] ;
546 -> 547 ;
548 [label="super_dist_6JD <= 0.5\ngini = 0.417\nsamples = 1813\nvalue = [538, 1275]\nclass = 1", fillcolor="#8dc6f0"] ;
547 -> 548 ;
549 [label="super_dist_2JD <= 0.5\ngini = 0.409\nsamples = 1701\nvalue = [488, 1213]\nclass = 1", fillcolor="#89c4ef"] ;
548 -> 549 ;
550 [label="super_dist_3JD <= 0.5\ngini = 0.396\nsamples = 1454\nvalue = [396, 1058]\nclass = 1", fillcolor="#83c2ef"] ;
549 -> 550 ;
551 [label="super_dist_5JD <= 0.5\ngini = 0.386\nsamples = 1315\nvalue = [343, 972]\nclass = 1", fillcolor="#7fc0ee"] ;
550 -> 551 ;
552 [label="super_dist_1JD <= 0.5\ngini = 0.343\nsamples = 683\nvalue = [150, 533]\nclass = 1", fillcolor="#71b9ec"] ;
551 -> 552 ;
553 [label="super_dist_4JD <= 0.5\ngini = 0.132\nsamples = 268\nvalue = [19, 249]\nclass = 1", fillcolor="#48a4e7"] ;
552 -> 553 ;
554 [label="gini = 0.0\nsamples = 206\nvalue = [0, 206]\nclass = 1", fillcolor="#399de5"] ;
553 -> 554 ;
555 [label="crime_subtype_Burglary <= 0.5\ngini = 0.425\nsamples = 62\nvalue = [19, 43]\nclass = 1", fillcolor="#90c8f0"] ;
553 -> 555 ;
556 [label="crime_subtype_Trafficking <= 0.5\ngini = 0.348\nsamples = 49\nvalue = [11, 38]\nclass = 1", fillcolor="#72b9ed"] ;
555 -> 556 ;
557 [label="crime_class_C Felony <= 0.5\ngini = 0.25\nsamples = 41\nvalue = [6, 35]\nclass = 1", fillcolor="#5baee9"] ;
556 -> 557 ;
558 [label="crime_subtype_Assault <= 0.5\ngini = 0.159\nsamples = 23\nvalue = [2, 21]\nclass = 1", fillcolor="#4ca6e7"] ;
557 -> 558 ;
559 [label="gini = 0.0\nsamples = 18\nvalue = [0, 18]\nclass = 1", fillcolor="#399de5"] ;
558 -> 559 ;
560 [label="age_number <= 25.0\ngini = 0.48\nsamples = 5\nvalue = [2, 3]\nclass = 1", fillcolor="#bddef6"] ;
558 -> 560 ;
561 [label="gini = 0.0\nsamples = 2\nvalue = [0, 2]\nclass = 1", fillcolor="#399de5"] ;
560 -> 561 ;
562 [label="sex_Female <= 0.5\ngini = 0.444\nsamples = 3\nvalue = [2, 1]\nclass = 0", fillcolor="#f2c09c"] ;
560 -> 562 ;
563 [label="gini = 0.5\nsamples = 2\nvalue = [1, 1]\nclass = 0", fillcolor="#ffffff"] ;
562 -> 563 ;
564 [label="gini = 0.0\nsamples = 1\nvalue = [1, 0]\nclass = 0", fillcolor="#e58139"] ;
562 -> 564 ;
565 [label="crime_subtype_Theft <= 0.5\ngini = 0.346\nsamples = 18\nvalue = [4, 14]\nclass = 1", fillcolor="#72b9ec"] ;
557 -> 565 ;
566 [label="gini = 0.0\nsamples = 5\nvalue = [0, 5]\nclass = 1", fillcolor="#399de5"] ;
565 -> 566 ;
567 [label="race_ethnicity_White <= 0.5\ngini = 0.426\nsamples = 13\nvalue = [4, 9]\nclass = 1", fillcolor="#91c9f1"] ;
565 -> 567 ;
568 [label="gini = 0.0\nsamples = 2\nvalue = [0, 2]\nclass = 1", fillcolor="#399de5"] ;
567 -> 568 ;
569 [label="age_number <= 25.0\ngini = 0.463\nsamples = 11\nvalue = [4, 7]\nclass = 1", fillcolor="#aad5f4"] ;
567 -> 569 ;
570 [label="gini = 0.32\nsamples = 5\nvalue = [1, 4]\nclass = 1", fillcolor="#6ab6ec"] ;
569 -> 570 ;
571 [label="gini = 0.5\nsamples = 6\nvalue = [3, 3]\nclass = 0", fillcolor="#ffffff"] ;
569 -> 571 ;
572 [label="crime_class_C Felony <= 0.5\ngini = 0.469\nsamples = 8\nvalue = [5, 3]\nclass = 0", fillcolor="#f5cdb0"] ;
556 -> 572 ;
573 [label="gini = 0.0\nsamples = 4\nvalue = [4, 0]\nclass = 0", fillcolor="#e58139"] ;
572 -> 573 ;
574 [label="race_ethnicity_White <= 0.5\ngini = 0.375\nsamples = 4\nvalue = [1, 3]\nclass = 1", fillcolor="#7bbeee"] ;
572 -> 574 ;
575 [label="gini = 0.0\nsamples = 1\nvalue = [0, 1]\nclass = 1", fillcolor="#399de5"] ;
574 -> 575 ;
576 [label="target_pop_Yes <= 0.5\ngini = 0.444\nsamples = 3\nvalue = [1, 2]\nclass = 1", fillcolor="#9ccef2"] ;
574 -> 576 ;
577 [label="gini = 0.0\nsamples = 1\nvalue = [0, 1]\nclass = 1", fillcolor="#399de5"] ;
576 -> 577 ;
578 [label="gini = 0.5\nsamples = 2\nvalue = [1, 1]\nclass = 0", fillcolor="#ffffff"] ;
576 -> 578 ;
579 [label="age_enc <= 0.5\ngini = 0.473\nsamples = 13\nvalue = [8, 5]\nclass = 0", fillcolor="#f5d0b5"] ;
555 -> 579 ;
580 [label="crime_class_D Felony <= 0.5\ngini = 0.375\nsamples = 8\nvalue = [6, 2]\nclass = 0", fillcolor="#eeab7b"] ;
579 -> 580 ;
581 [label="gini = 0.0\nsamples = 3\nvalue = [3, 0]\nclass = 0", fillcolor="#e58139"] ;
580 -> 581 ;
582 [label="race_ethnicity_Black <= 0.5\ngini = 0.48\nsamples = 5\nvalue = [3, 2]\nclass = 0", fillcolor="#f6d5bd"] ;
580 -> 582 ;
583 [label="gini = 0.5\nsamples = 4\nvalue = [2, 2]\nclass = 0", fillcolor="#ffffff"] ;
582 -> 583 ;
584 [label="gini = 0.0\nsamples = 1\nvalue = [1, 0]\nclass = 0", fillcolor="#e58139"] ;
582 -> 584 ;
585 [label="race_ethnicity_Black <= 0.5\ngini = 0.48\nsamples = 5\nvalue = [2, 3]\nclass = 1", fillcolor="#bddef6"] ;
579 -> 585 ;
586 [label="sex_Male <= 0.5\ngini = 0.375\nsamples = 4\nvalue = [1, 3]\nclass = 1", fillcolor="#7bbeee"] ;
585 -> 586 ;
587 [label="gini = 0.5\nsamples = 2\nvalue = [1, 1]\nclass = 0", fillcolor="#ffffff"] ;
586 -> 587 ;
588 [label="gini = 0.0\nsamples = 2\nvalue = [0, 2]\nclass = 1", fillcolor="#399de5"] ;
586 -> 588 ;
589 [label="gini = 0.0\nsamples = 1\nvalue = [1, 0]\nclass = 0", fillcolor="#e58139"] ;
585 -> 589 ;
590 [label="crime_type_Drug <= 0.5\ngini = 0.432\nsamples = 415\nvalue = [131, 284]\nclass = 1", fillcolor="#94caf1"] ;
552 -> 590 ;
591 [label="sex_Female <= 0.5\ngini = 0.47\nsamples = 246\nvalue = [93, 153]\nclass = 1", fillcolor="#b1d9f5"] ;
590 -> 591 ;
592 [label="race_ethnicity_White <= 0.5\ngini = 0.456\nsamples = 222\nvalue = [78, 144]\nclass = 1", fillcolor="#a4d2f3"] ;
591 -> 592 ;
593 [label="race_ethnicity_Black <= 0.5\ngini = 0.418\nsamples = 131\nvalue = [39, 92]\nclass = 1", fillcolor="#8dc7f0"] ;
592 -> 593 ;
594 [label="race_ethnicity_Hispanic <= 0.5\ngini = 0.198\nsamples = 18\nvalue = [2, 16]\nclass = 1", fillcolor="#52a9e8"] ;
593 -> 594 ;
595 [label="gini = 0.0\nsamples = 13\nvalue = [0, 13]\nclass = 1", fillcolor="#399de5"] ;
594 -> 595 ;
596 [label="crime_subtype_Theft <= 0.5\ngini = 0.48\nsamples = 5\nvalue = [2, 3]\nclass = 1", fillcolor="#bddef6"] ;
594 -> 596 ;
597 [label="crime_class_C Felony <= 0.5\ngini = 0.5\nsamples = 4\nvalue = [2, 2]\nclass = 0", fillcolor="#ffffff"] ;
596 -> 597 ;
598 [label="crime_subtype_Assault <= 0.5\ngini = 0.444\nsamples = 3\nvalue = [2, 1]\nclass = 0", fillcolor="#f2c09c"] ;
597 -> 598 ;
599 [label="age_enc <= 0.5\ngini = 0.5\nsamples = 2\nvalue = [1, 1]\nclass = 0", fillcolor="#ffffff"] ;
598 -> 599 ;
600 [label="gini = 0.0\nsamples = 1\nvalue = [1, 0]\nclass = 0", fillcolor="#e58139"] ;
599 -> 600 ;
601 [label="gini = 0.0\nsamples = 1\nvalue = [0, 1]\nclass = 1", fillcolor="#399de5"] ;
599 -> 601 ;
602 [label="gini = 0.0\nsamples = 1\nvalue = [1, 0]\nclass = 0", fillcolor="#e58139"] ;
598 -> 602 ;
603 [label="gini = 0.0\nsamples = 1\nvalue = [0, 1]\nclass = 1", fillcolor="#399de5"] ;
597 -> 603 ;
604 [label="gini = 0.0\nsamples = 1\nvalue = [0, 1]\nclass = 1", fillcolor="#399de5"] ;
596 -> 604 ;
605 [label="age_number <= 25.0\ngini = 0.44\nsamples = 113\nvalue = [37, 76]\nclass = 1", fillcolor="#99cdf2"] ;
593 -> 605 ;
606 [label="crime_subtype_Theft <= 0.5\ngini = 0.353\nsamples = 48\nvalue = [11, 37]\nclass = 1", fillcolor="#74baed"] ;
605 -> 606 ;
607 [label="crime_subtype_Other Criminal <= 0.5\ngini = 0.298\nsamples = 44\nvalue = [8, 36]\nclass = 1", fillcolor="#65b3eb"] ;
606 -> 607 ;
608 [label="crime_subtype_Forgery/Fraud <= 0.5\ngini = 0.273\nsamples = 43\nvalue = [7, 36]\nclass = 1", fillcolor="#5fb0ea"] ;
607 -> 608 ;
609 [label="crime_class_C Felony <= 0.5\ngini = 0.245\nsamples = 42\nvalue = [6, 36]\nclass = 1", fillcolor="#5aade9"] ;
608 -> 609 ;
610 [label="crime_subtype_Weapons <= 0.5\ngini = 0.137\nsamples = 27\nvalue = [2, 25]\nclass = 1", fillcolor="#49a5e7"] ;
609 -> 610 ;
611 [label="crime_subtype_Vandalism <= 0.5\ngini = 0.077\nsamples = 25\nvalue = [1, 24]\nclass = 1", fillcolor="#41a1e6"] ;
610 -> 611 ;
612 [label="gini = 0.0\nsamples = 23\nvalue = [0, 23]\nclass = 1", fillcolor="#399de5"] ;
611 -> 612 ;
613 [label="gini = 0.5\nsamples = 2\nvalue = [1, 1]\nclass = 0", fillcolor="#ffffff"] ;
611 -> 613 ;
614 [label="gini = 0.5\nsamples = 2\nvalue = [1, 1]\nclass = 0", fillcolor="#ffffff"] ;
610 -> 614 ;
615 [label="crime_type_Violent <= 0.5\ngini = 0.391\nsamples = 15\nvalue = [4, 11]\nclass = 1", fillcolor="#81c1ee"] ;
609 -> 615 ;
616 [label="gini = 0.5\nsamples = 2\nvalue = [1, 1]\nclass = 0", fillcolor="#ffffff"] ;
615 -> 616 ;
617 [label="gini = 0.355\nsamples = 13\nvalue = [3, 10]\nclass = 1", fillcolor="#74baed"] ;
615 -> 617 ;
618 [label="gini = 0.0\nsamples = 1\nvalue = [1, 0]\nclass = 0", fillcolor="#e58139"] ;
608 -> 618 ;
619 [label="gini = 0.0\nsamples = 1\nvalue = [1, 0]\nclass = 0", fillcolor="#e58139"] ;
607 -> 619 ;
620 [label="gini = 0.375\nsamples = 4\nvalue = [3, 1]\nclass = 0", fillcolor="#eeab7b"] ;
606 -> 620 ;
621 [label="crime_type_Violent <= 0.5\ngini = 0.48\nsamples = 65\nvalue = [26, 39]\nclass = 1", fillcolor="#bddef6"] ;
605 -> 621 ;
622 [label="crime_class_D Felony <= 0.5\ngini = 0.444\nsamples = 48\nvalue = [16, 32]\nclass = 1", fillcolor="#9ccef2"] ;
621 -> 622 ;
623 [label="crime_class_B Felony <= 0.5\ngini = 0.405\nsamples = 39\nvalue = [11, 28]\nclass = 1", fillcolor="#87c4ef"] ;
622 -> 623 ;
624 [label="crime_subtype_Burglary <= 0.5\ngini = 0.367\nsamples = 33\nvalue = [8, 25]\nclass = 1", fillcolor="#78bced"] ;
623 -> 624 ;
625 [label="crime_class_Felony - Enhanced <= 0.5\ngini = 0.298\nsamples = 22\nvalue = [4, 18]\nclass = 1", fillcolor="#65b3eb"] ;
624 -> 625 ;
626 [label="gini = 0.0\nsamples = 6\nvalue = [0, 6]\nclass = 1", fillcolor="#399de5"] ;
625 -> 626 ;
627 [label="gini = 0.375\nsamples = 16\nvalue = [4, 12]\nclass = 1", fillcolor="#7bbeee"] ;
625 -> 627 ;
628 [label="crime_class_C Felony <= 0.5\ngini = 0.463\nsamples = 11\nvalue = [4, 7]\nclass = 1", fillcolor="#aad5f4"] ;
624 -> 628 ;
629 [label="gini = 0.0\nsamples = 1\nvalue = [0, 1]\nclass = 1", fillcolor="#399de5"] ;
628 -> 629 ;
630 [label="gini = 0.48\nsamples = 10\nvalue = [4, 6]\nclass = 1", fillcolor="#bddef6"] ;
628 -> 630 ;
631 [label="target_pop_Yes <= 0.5\ngini = 0.5\nsamples = 6\nvalue = [3, 3]\nclass = 0", fillcolor="#ffffff"] ;
623 -> 631 ;
632 [label="gini = 0.0\nsamples = 1\nvalue = [0, 1]\nclass = 1", fillcolor="#399de5"] ;
631 -> 632 ;
633 [label="gini = 0.48\nsamples = 5\nvalue = [3, 2]\nclass = 0", fillcolor="#f6d5bd"] ;
631 -> 633 ;
634 [label="crime_subtype_OWI <= 0.5\ngini = 0.494\nsamples = 9\nvalue = [5, 4]\nclass = 0", fillcolor="#fae6d7"] ;
622 -> 634 ;
635 [label="crime_subtype_Burglary <= 0.5\ngini = 0.5\nsamples = 8\nvalue = [4, 4]\nclass = 0", fillcolor="#ffffff"] ;
634 -> 635 ;
636 [label="crime_subtype_Theft <= 0.5\ngini = 0.48\nsamples = 5\nvalue = [3, 2]\nclass = 0", fillcolor="#f6d5bd"] ;
635 -> 636 ;
637 [label="gini = 0.5\nsamples = 2\nvalue = [1, 1]\nclass = 0", fillcolor="#ffffff"] ;
636 -> 637 ;
638 [label="gini = 0.444\nsamples = 3\nvalue = [2, 1]\nclass = 0", fillcolor="#f2c09c"] ;
636 -> 638 ;
639 [label="gini = 0.444\nsamples = 3\nvalue = [1, 2]\nclass = 1", fillcolor="#9ccef2"] ;
635 -> 639 ;
640 [label="gini = 0.0\nsamples = 1\nvalue = [1, 0]\nclass = 0", fillcolor="#e58139"] ;
634 -> 640 ;
641 [label="crime_class_D Felony <= 0.5\ngini = 0.484\nsamples = 17\nvalue = [10, 7]\nclass = 0", fillcolor="#f7d9c4"] ;
621 -> 641 ;
642 [label="crime_subtype_Assault <= 0.5\ngini = 0.346\nsamples = 9\nvalue = [7, 2]\nclass = 0", fillcolor="#eca572"] ;
641 -> 642 ;
643 [label="gini = 0.5\nsamples = 4\nvalue = [2, 2]\nclass = 0", fillcolor="#ffffff"] ;
642 -> 643 ;
644 [label="gini = 0.0\nsamples = 5\nvalue = [5, 0]\nclass = 0", fillcolor="#e58139"] ;
642 -> 644 ;
645 [label="gini = 0.469\nsamples = 8\nvalue = [3, 5]\nclass = 1", fillcolor="#b0d8f5"] ;
641 -> 645 ;
646 [label="crime_subtype_Burglary <= 0.5\ngini = 0.49\nsamples = 91\nvalue = [39, 52]\nclass = 1", fillcolor="#cee6f8"] ;
592 -> 646 ;
647 [label="crime_subtype_Other Public Order <= 0.5\ngini = 0.463\nsamples = 66\nvalue = [24, 42]\nclass = 1", fillcolor="#aad5f4"] ;
646 -> 647 ;
648 [label="crime_subtype_Traffic <= 0.5\ngini = 0.451\nsamples = 64\nvalue = [22, 42]\nclass = 1", fillcolor="#a1d0f3"] ;
647 -> 648 ;
649 [label="crime_subtype_Robbery <= 0.5\ngini = 0.437\nsamples = 62\nvalue = [20, 42]\nclass = 1", fillcolor="#97ccf1"] ;
648 -> 649 ;
650 [label="crime_subtype_Weapons <= 0.5\ngini = 0.429\nsamples = 61\nvalue = [19, 42]\nclass = 1", fillcolor="#93c9f1"] ;
649 -> 650 ;
651 [label="crime_class_Felony - Enhanced <= 0.5\ngini = 0.42\nsamples = 60\nvalue = [18, 42]\nclass = 1", fillcolor="#8ec7f0"] ;
650 -> 651 ;
652 [label="crime_subtype_Vandalism <= 0.5\ngini = 0.385\nsamples = 50\nvalue = [13, 37]\nclass = 1", fillcolor="#7fbfee"] ;
651 -> 652 ;
653 [label="crime_subtype_Theft <= 0.5\ngini = 0.359\nsamples = 47\nvalue = [11, 36]\nclass = 1", fillcolor="#76bbed"] ;
652 -> 653 ;
654 [label="crime_subtype_Sex <= 0.5\ngini = 0.298\nsamples = 33\nvalue = [6, 27]\nclass = 1", fillcolor="#65b3eb"] ;
653 -> 654 ;
655 [label="crime_subtype_Assault <= 0.5\ngini = 0.271\nsamples = 31\nvalue = [5, 26]\nclass = 1", fillcolor="#5fb0ea"] ;
654 -> 655 ;
656 [label="crime_type_Violent <= 0.5\ngini = 0.227\nsamples = 23\nvalue = [3, 20]\nclass = 1", fillcolor="#57ace9"] ;
655 -> 656 ;
657 [label="sex_Male <= 0.5\ngini = 0.255\nsamples = 20\nvalue = [3, 17]\nclass = 1", fillcolor="#5caeea"] ;
656 -> 657 ;
658 [label="gini = 0.0\nsamples = 2\nvalue = [0, 2]\nclass = 1", fillcolor="#399de5"] ;
657 -> 658 ;
659 [label="age_number <= 25.0\ngini = 0.278\nsamples = 18\nvalue = [3, 15]\nclass = 1", fillcolor="#61b1ea"] ;
657 -> 659 ;
660 [label="gini = 0.0\nsamples = 2\nvalue = [0, 2]\nclass = 1", fillcolor="#399de5"] ;
659 -> 660 ;
661 [label="crime_subtype_Forgery/Fraud <= 0.5\ngini = 0.305\nsamples = 16\nvalue = [3, 13]\nclass = 1", fillcolor="#67b4eb"] ;
659 -> 661 ;
662 [label="crime_type_Property <= 0.5\ngini = 0.26\nsamples = 13\nvalue = [2, 11]\nclass = 1", fillcolor="#5dafea"] ;
661 -> 662 ;
663 [label="gini = 0.298\nsamples = 11\nvalue = [2, 9]\nclass = 1", fillcolor="#65b3eb"] ;
662 -> 663 ;
664 [label="gini = 0.0\nsamples = 2\nvalue = [0, 2]\nclass = 1", fillcolor="#399de5"] ;
662 -> 664 ;
665 [label="gini = 0.444\nsamples = 3\nvalue = [1, 2]\nclass = 1", fillcolor="#9ccef2"] ;
661 -> 665 ;
666 [label="gini = 0.0\nsamples = 3\nvalue = [0, 3]\nclass = 1", fillcolor="#399de5"] ;
656 -> 666 ;
667 [label="crime_class_D Felony <= 0.5\ngini = 0.375\nsamples = 8\nvalue = [2, 6]\nclass = 1", fillcolor="#7bbeee"] ;
655 -> 667 ;
668 [label="gini = 0.0\nsamples = 2\nvalue = [0, 2]\nclass = 1", fillcolor="#399de5"] ;
667 -> 668 ;
669 [label="age_enc <= 0.5\ngini = 0.444\nsamples = 6\nvalue = [2, 4]\nclass = 1", fillcolor="#9ccef2"] ;
667 -> 669 ;
670 [label="gini = 0.0\nsamples = 1\nvalue = [1, 0]\nclass = 0", fillcolor="#e58139"] ;
669 -> 670 ;
671 [label="gini = 0.32\nsamples = 5\nvalue = [1, 4]\nclass = 1", fillcolor="#6ab6ec"] ;
669 -> 671 ;
672 [label="crime_class_C Felony <= 0.5\ngini = 0.5\nsamples = 2\nvalue = [1, 1]\nclass = 0", fillcolor="#ffffff"] ;
654 -> 672 ;
673 [label="gini = 0.0\nsamples = 1\nvalue = [0, 1]\nclass = 1", fillcolor="#399de5"] ;
672 -> 673 ;
674 [label="gini = 0.0\nsamples = 1\nvalue = [1, 0]\nclass = 0", fillcolor="#e58139"] ;
672 -> 674 ;
675 [label="crime_class_C Felony <= 0.5\ngini = 0.459\nsamples = 14\nvalue = [5, 9]\nclass = 1", fillcolor="#a7d3f3"] ;
653 -> 675 ;
676 [label="age_enc <= 0.5\ngini = 0.48\nsamples = 5\nvalue = [3, 2]\nclass = 0", fillcolor="#f6d5bd"] ;
675 -> 676 ;
677 [label="gini = 0.0\nsamples = 2\nvalue = [2, 0]\nclass = 0", fillcolor="#e58139"] ;
676 -> 677 ;
678 [label="gini = 0.444\nsamples = 3\nvalue = [1, 2]\nclass = 1", fillcolor="#9ccef2"] ;
676 -> 678 ;
679 [label="age_number <= 25.0\ngini = 0.346\nsamples = 9\nvalue = [2, 7]\nclass = 1", fillcolor="#72b9ec"] ;
675 -> 679 ;
680 [label="gini = 0.245\nsamples = 7\nvalue = [1, 6]\nclass = 1", fillcolor="#5aade9"] ;
679 -> 680 ;
681 [label="gini = 0.5\nsamples = 2\nvalue = [1, 1]\nclass = 0", fillcolor="#ffffff"] ;
679 -> 681 ;
682 [label="age_number <= 25.0\ngini = 0.444\nsamples = 3\nvalue = [2, 1]\nclass = 0", fillcolor="#f2c09c"] ;
652 -> 682 ;
683 [label="gini = 0.0\nsamples = 2\nvalue = [2, 0]\nclass = 0", fillcolor="#e58139"] ;
682 -> 683 ;
684 [label="gini = 0.0\nsamples = 1\nvalue = [0, 1]\nclass = 1", fillcolor="#399de5"] ;
682 -> 684 ;
685 [label="gini = 0.5\nsamples = 10\nvalue = [5, 5]\nclass = 0", fillcolor="#ffffff"] ;
651 -> 685 ;
686 [label="gini = 0.0\nsamples = 1\nvalue = [1, 0]\nclass = 0", fillcolor="#e58139"] ;
650 -> 686 ;
687 [label="gini = 0.0\nsamples = 1\nvalue = [1, 0]\nclass = 0", fillcolor="#e58139"] ;
649 -> 687 ;
688 [label="gini = 0.0\nsamples = 2\nvalue = [2, 0]\nclass = 0", fillcolor="#e58139"] ;
648 -> 688 ;
689 [label="gini = 0.0\nsamples = 2\nvalue = [2, 0]\nclass = 0", fillcolor="#e58139"] ;
647 -> 689 ;
690 [label="crime_class_C Felony <= 0.5\ngini = 0.48\nsamples = 25\nvalue = [15, 10]\nclass = 0", fillcolor="#f6d5bd"] ;
646 -> 690 ;
691 [label="age_enc <= 0.5\ngini = 0.355\nsamples = 13\nvalue = [10, 3]\nclass = 0", fillcolor="#eda774"] ;
690 -> 691 ;
692 [label="gini = 0.375\nsamples = 8\nvalue = [6, 2]\nclass = 0", fillcolor="#eeab7b"] ;
691 -> 692 ;
693 [label="gini = 0.32\nsamples = 5\nvalue = [4, 1]\nclass = 0", fillcolor="#eca06a"] ;
691 -> 693 ;
694 [label="age_number <= 25.0\ngini = 0.486\nsamples = 12\nvalue = [5, 7]\nclass = 1", fillcolor="#c6e3f8"] ;
690 -> 694 ;
695 [label="gini = 0.5\nsamples = 4\nvalue = [2, 2]\nclass = 0", fillcolor="#ffffff"] ;
694 -> 695 ;
696 [label="gini = 0.469\nsamples = 8\nvalue = [3, 5]\nclass = 1", fillcolor="#b0d8f5"] ;
694 -> 696 ;
697 [label="race_ethnicity_White <= 0.5\ngini = 0.469\nsamples = 24\nvalue = [15, 9]\nclass = 0", fillcolor="#f5cdb0"] ;
591 -> 697 ;
698 [label="gini = 0.0\nsamples = 7\nvalue = [7, 0]\nclass = 0", fillcolor="#e58139"] ;
697 -> 698 ;
699 [label="crime_type_Public Order <= 0.5\ngini = 0.498\nsamples = 17\nvalue = [8, 9]\nclass = 1", fillcolor="#e9f4fc"] ;
697 -> 699 ;
700 [label="crime_subtype_Theft <= 0.5\ngini = 0.49\nsamples = 14\nvalue = [8, 6]\nclass = 0", fillcolor="#f8e0ce"] ;
699 -> 700 ;
701 [label="crime_class_C Felony <= 0.5\ngini = 0.5\nsamples = 12\nvalue = [6, 6]\nclass = 0", fillcolor="#ffffff"] ;
700 -> 701 ;
702 [label="crime_subtype_Assault <= 0.5\ngini = 0.469\nsamples = 8\nvalue = [5, 3]\nclass = 0", fillcolor="#f5cdb0"] ;
701 -> 702 ;
703 [label="crime_type_Property <= 0.5\ngini = 0.49\nsamples = 7\nvalue = [4, 3]\nclass = 0", fillcolor="#f8e0ce"] ;
702 -> 703 ;
704 [label="gini = 0.0\nsamples = 1\nvalue = [0, 1]\nclass = 1", fillcolor="#399de5"] ;
703 -> 704 ;
705 [label="age_number <= 25.0\ngini = 0.444\nsamples = 6\nvalue = [4, 2]\nclass = 0", fillcolor="#f2c09c"] ;
703 -> 705 ;
706 [label="crime_subtype_Burglary <= 0.5\ngini = 0.375\nsamples = 4\nvalue = [3, 1]\nclass = 0", fillcolor="#eeab7b"] ;
705 -> 706 ;
707 [label="gini = 0.0\nsamples = 1\nvalue = [1, 0]\nclass = 0", fillcolor="#e58139"] ;
706 -> 707 ;
708 [label="gini = 0.444\nsamples = 3\nvalue = [2, 1]\nclass = 0", fillcolor="#f2c09c"] ;
706 -> 708 ;
709 [label="gini = 0.5\nsamples = 2\nvalue = [1, 1]\nclass = 0", fillcolor="#ffffff"] ;
705 -> 709 ;
710 [label="gini = 0.0\nsamples = 1\nvalue = [1, 0]\nclass = 0", fillcolor="#e58139"] ;
702 -> 710 ;
711 [label="crime_type_Violent <= 0.5\ngini = 0.375\nsamples = 4\nvalue = [1, 3]\nclass = 1", fillcolor="#7bbeee"] ;
701 -> 711 ;
712 [label="gini = 0.0\nsamples = 2\nvalue = [0, 2]\nclass = 1", fillcolor="#399de5"] ;
711 -> 712 ;
713 [label="gini = 0.5\nsamples = 2\nvalue = [1, 1]\nclass = 0", fillcolor="#ffffff"] ;
711 -> 713 ;
714 [label="gini = 0.0\nsamples = 2\nvalue = [2, 0]\nclass = 0", fillcolor="#e58139"] ;
700 -> 714 ;
715 [label="gini = 0.0\nsamples = 3\nvalue = [0, 3]\nclass = 1", fillcolor="#399de5"] ;
699 -> 715 ;
716 [label="crime_class_B Felony <= 0.5\ngini = 0.349\nsamples = 169\nvalue = [38, 131]\nclass = 1", fillcolor="#72b9ed"] ;
590 -> 716 ;
717 [label="sex_Female <= 0.5\ngini = 0.393\nsamples = 130\nvalue = [35, 95]\nclass = 1", fillcolor="#82c1ef"] ;
716 -> 717 ;
718 [label="age_enc <= 0.5\ngini = 0.383\nsamples = 124\nvalue = [32, 92]\nclass = 1", fillcolor="#7ebfee"] ;
717 -> 718 ;
719 [label="crime_subtype_Drug Possession <= 0.5\ngini = 0.465\nsamples = 19\nvalue = [7, 12]\nclass = 1", fillcolor="#acd6f4"] ;
718 -> 719 ;
720 [label="crime_class_Felony - Enhanced <= 0.5\ngini = 0.444\nsamples = 18\nvalue = [6, 12]\nclass = 1", fillcolor="#9ccef2"] ;
719 -> 720 ;
721 [label="crime_class_D Felony <= 0.5\ngini = 0.375\nsamples = 12\nvalue = [3, 9]\nclass = 1", fillcolor="#7bbeee"] ;
720 -> 721 ;
722 [label="gini = 0.0\nsamples = 4\nvalue = [0, 4]\nclass = 1", fillcolor="#399de5"] ;
721 -> 722 ;
723 [label="race_ethnicity_White <= 0.5\ngini = 0.469\nsamples = 8\nvalue = [3, 5]\nclass = 1", fillcolor="#b0d8f5"] ;
721 -> 723 ;
724 [label="gini = 0.48\nsamples = 5\nvalue = [2, 3]\nclass = 1", fillcolor="#bddef6"] ;
723 -> 724 ;
725 [label="gini = 0.444\nsamples = 3\nvalue = [1, 2]\nclass = 1", fillcolor="#9ccef2"] ;
723 -> 725 ;
726 [label="race_ethnicity_White <= 0.5\ngini = 0.5\nsamples = 6\nvalue = [3, 3]\nclass = 0", fillcolor="#ffffff"] ;
720 -> 726 ;
727 [label="target_pop_Yes <= 0.5\ngini = 0.48\nsamples = 5\nvalue = [2, 3]\nclass = 1", fillcolor="#bddef6"] ;
726 -> 727 ;
728 [label="gini = 0.0\nsamples = 1\nvalue = [0, 1]\nclass = 1", fillcolor="#399de5"] ;
727 -> 728 ;
729 [label="gini = 0.5\nsamples = 4\nvalue = [2, 2]\nclass = 0", fillcolor="#ffffff"] ;
727 -> 729 ;
730 [label="gini = 0.0\nsamples = 1\nvalue = [1, 0]\nclass = 0", fillcolor="#e58139"] ;
726 -> 730 ;
731 [label="gini = 0.0\nsamples = 1\nvalue = [1, 0]\nclass = 0", fillcolor="#e58139"] ;
719 -> 731 ;
732 [label="crime_class_D Felony <= 0.5\ngini = 0.363\nsamples = 105\nvalue = [25, 80]\nclass = 1", fillcolor="#77bced"] ;
718 -> 732 ;
733 [label="race_ethnicity_Black <= 0.5\ngini = 0.395\nsamples = 85\nvalue = [23, 62]\nclass = 1", fillcolor="#82c1ef"] ;
732 -> 733 ;
734 [label="crime_class_C Felony <= 0.5\ngini = 0.346\nsamples = 45\nvalue = [10, 35]\nclass = 1", fillcolor="#72b9ec"] ;
733 -> 734 ;
735 [label="crime_class_Felony - Enhanced <= 0.5\ngini = 0.231\nsamples = 15\nvalue = [2, 13]\nclass = 1", fillcolor="#57ace9"] ;
734 -> 735 ;
736 [label="gini = 0.0\nsamples = 1\nvalue = [0, 1]\nclass = 1", fillcolor="#399de5"] ;
735 -> 736 ;
737 [label="gini = 0.245\nsamples = 14\nvalue = [2, 12]\nclass = 1", fillcolor="#5aade9"] ;
735 -> 737 ;
738 [label="crime_subtype_Trafficking <= 0.5\ngini = 0.391\nsamples = 30\nvalue = [8, 22]\nclass = 1", fillcolor="#81c1ee"] ;
734 -> 738 ;
739 [label="gini = 0.0\nsamples = 2\nvalue = [0, 2]\nclass = 1", fillcolor="#399de5"] ;
738 -> 739 ;
740 [label="race_ethnicity_White <= 0.5\ngini = 0.408\nsamples = 28\nvalue = [8, 20]\nclass = 1", fillcolor="#88c4ef"] ;
738 -> 740 ;
741 [label="gini = 0.0\nsamples = 2\nvalue = [0, 2]\nclass = 1", fillcolor="#399de5"] ;
740 -> 741 ;
742 [label="gini = 0.426\nsamples = 26\nvalue = [8, 18]\nclass = 1", fillcolor="#91c9f1"] ;
740 -> 742 ;
743 [label="target_pop_Yes <= 0.5\ngini = 0.439\nsamples = 40\nvalue = [13, 27]\nclass = 1", fillcolor="#98ccf2"] ;
733 -> 743 ;
744 [label="gini = 0.0\nsamples = 1\nvalue = [0, 1]\nclass = 1", fillcolor="#399de5"] ;
743 -> 744 ;
745 [label="crime_class_C Felony <= 0.5\ngini = 0.444\nsamples = 39\nvalue = [13, 26]\nclass = 1", fillcolor="#9ccef2"] ;
743 -> 745 ;
746 [label="crime_class_Felony - Enhanced <= 0.5\ngini = 0.434\nsamples = 22\nvalue = [7, 15]\nclass = 1", fillcolor="#95cbf1"] ;
745 -> 746 ;
747 [label="gini = 0.0\nsamples = 1\nvalue = [0, 1]\nclass = 1", fillcolor="#399de5"] ;
746 -> 747 ;
748 [label="gini = 0.444\nsamples = 21\nvalue = [7, 14]\nclass = 1", fillcolor="#9ccef2"] ;
746 -> 748 ;
749 [label="gini = 0.457\nsamples = 17\nvalue = [6, 11]\nclass = 1", fillcolor="#a5d2f3"] ;
745 -> 749 ;
750 [label="crime_subtype_Drug Possession <= 0.5\ngini = 0.18\nsamples = 20\nvalue = [2, 18]\nclass = 1", fillcolor="#4fa8e8"] ;
732 -> 750 ;
751 [label="gini = 0.0\nsamples = 9\nvalue = [0, 9]\nclass = 1", fillcolor="#399de5"] ;
750 -> 751 ;
752 [label="race_ethnicity_Black <= 0.5\ngini = 0.298\nsamples = 11\nvalue = [2, 9]\nclass = 1", fillcolor="#65b3eb"] ;
750 -> 752 ;
753 [label="gini = 0.198\nsamples = 9\nvalue = [1, 8]\nclass = 1", fillcolor="#52a9e8"] ;
752 -> 753 ;
754 [label="gini = 0.5\nsamples = 2\nvalue = [1, 1]\nclass = 0", fillcolor="#ffffff"] ;
752 -> 754 ;
755 [label="race_ethnicity_Black <= 0.5\ngini = 0.5\nsamples = 6\nvalue = [3, 3]\nclass = 0", fillcolor="#ffffff"] ;
717 -> 755 ;
756 [label="age_number <= 25.0\ngini = 0.5\nsamples = 4\nvalue = [2, 2]\nclass = 0", fillcolor="#ffffff"] ;
755 -> 756 ;
757 [label="gini = 0.5\nsamples = 2\nvalue = [1, 1]\nclass = 0", fillcolor="#ffffff"] ;
756 -> 757 ;
758 [label="gini = 0.5\nsamples = 2\nvalue = [1, 1]\nclass = 0", fillcolor="#ffffff"] ;
756 -> 758 ;
759 [label="gini = 0.5\nsamples = 2\nvalue = [1, 1]\nclass = 0", fillcolor="#ffffff"] ;
755 -> 759 ;
760 [label="race_ethnicity_Hispanic <= 0.5\ngini = 0.142\nsamples = 39\nvalue = [3, 36]\nclass = 1", fillcolor="#49a5e7"] ;
716 -> 760 ;
761 [label="race_ethnicity_Black <= 0.5\ngini = 0.102\nsamples = 37\nvalue = [2, 35]\nclass = 1", fillcolor="#44a3e6"] ;
760 -> 761 ;
762 [label="sex_Male <= 0.5\ngini = 0.056\nsamples = 35\nvalue = [1, 34]\nclass = 1", fillcolor="#3fa0e6"] ;
761 -> 762 ;
763 [label="gini = 0.0\nsamples = 4\nvalue = [0, 4]\nclass = 1", fillcolor="#399de5"] ;
762 -> 763 ;
764 [label="race_ethnicity_White <= 0.5\ngini = 0.062\nsamples = 31\nvalue = [1, 30]\nclass = 1", fillcolor="#40a0e6"] ;
762 -> 764 ;
765 [label="gini = 0.0\nsamples = 2\nvalue = [0, 2]\nclass = 1", fillcolor="#399de5"] ;
764 -> 765 ;
766 [label="age_number <= 25.0\ngini = 0.067\nsamples = 29\nvalue = [1, 28]\nclass = 1", fillcolor="#40a0e6"] ;
764 -> 766 ;
767 [label="gini = 0.0\nsamples = 2\nvalue = [0, 2]\nclass = 1", fillcolor="#399de5"] ;
766 -> 767 ;
768 [label="gini = 0.071\nsamples = 27\nvalue = [1, 26]\nclass = 1", fillcolor="#41a1e6"] ;
766 -> 768 ;
769 [label="sex_Female <= 0.5\ngini = 0.5\nsamples = 2\nvalue = [1, 1]\nclass = 0", fillcolor="#ffffff"] ;
761 -> 769 ;
770 [label="gini = 0.0\nsamples = 1\nvalue = [1, 0]\nclass = 0", fillcolor="#e58139"] ;
769 -> 770 ;
771 [label="gini = 0.0\nsamples = 1\nvalue = [0, 1]\nclass = 1", fillcolor="#399de5"] ;
769 -> 771 ;
772 [label="gini = 0.5\nsamples = 2\nvalue = [1, 1]\nclass = 0", fillcolor="#ffffff"] ;
760 -> 772 ;
773 [label="crime_type_Violent <= 0.5\ngini = 0.424\nsamples = 632\nvalue = [193, 439]\nclass = 1", fillcolor="#90c8f0"] ;
551 -> 773 ;
774 [label="crime_class_B Felony <= 0.5\ngini = 0.409\nsamples = 565\nvalue = [162, 403]\nclass = 1", fillcolor="#89c4ef"] ;
773 -> 774 ;
775 [label="race_ethnicity_Hispanic <= 0.5\ngini = 0.395\nsamples = 527\nvalue = [143, 384]\nclass = 1", fillcolor="#83c1ef"] ;
774 -> 775 ;
776 [label="race_ethnicity_Black <= 0.5\ngini = 0.387\nsamples = 508\nvalue = [133, 375]\nclass = 1", fillcolor="#7fc0ee"] ;
775 -> 776 ;
777 [label="crime_class_D Felony <= 0.5\ngini = 0.363\nsamples = 390\nvalue = [93, 297]\nclass = 1", fillcolor="#77bced"] ;
776 -> 777 ;
778 [label="crime_subtype_Burglary <= 0.5\ngini = 0.292\nsamples = 197\nvalue = [35, 162]\nclass = 1", fillcolor="#64b2eb"] ;
777 -> 778 ;
779 [label="race_ethnicity_Asian or Pacific Islander <= 0.5\ngini = 0.32\nsamples = 175\nvalue = [35, 140]\nclass = 1", fillcolor="#6ab6ec"] ;
778 -> 779 ;
780 [label="crime_subtype_Drug Possession <= 0.5\ngini = 0.31\nsamples = 172\nvalue = [33, 139]\nclass = 1", fillcolor="#68b4eb"] ;
779 -> 780 ;
781 [label="race_ethnicity_White <= 0.5\ngini = 0.304\nsamples = 171\nvalue = [32, 139]\nclass = 1", fillcolor="#67b4eb"] ;
780 -> 781 ;
782 [label="gini = 0.0\nsamples = 10\nvalue = [0, 10]\nclass = 1", fillcolor="#399de5"] ;
781 -> 782 ;
783 [label="crime_class_C Felony <= 0.5\ngini = 0.319\nsamples = 161\nvalue = [32, 129]\nclass = 1", fillcolor="#6ab5eb"] ;
781 -> 783 ;
784 [label="crime_class_Felony - Enhanced <= 0.5\ngini = 0.249\nsamples = 55\nvalue = [8, 47]\nclass = 1", fillcolor="#5baee9"] ;
783 -> 784 ;
785 [label="gini = 0.0\nsamples = 17\nvalue = [0, 17]\nclass = 1", fillcolor="#399de5"] ;
784 -> 785 ;
786 [label="sex_Male <= 0.5\ngini = 0.332\nsamples = 38\nvalue = [8, 30]\nclass = 1", fillcolor="#6eb7ec"] ;
784 -> 786 ;
787 [label="gini = 0.0\nsamples = 1\nvalue = [1, 0]\nclass = 0", fillcolor="#e58139"] ;
786 -> 787 ;
788 [label="crime_type_Other <= 0.5\ngini = 0.307\nsamples = 37\nvalue = [7, 30]\nclass = 1", fillcolor="#67b4eb"] ;
786 -> 788 ;
789 [label="gini = 0.397\nsamples = 22\nvalue = [6, 16]\nclass = 1", fillcolor="#83c2ef"] ;
788 -> 789 ;
790 [label="gini = 0.124\nsamples = 15\nvalue = [1, 14]\nclass = 1", fillcolor="#47a4e7"] ;
788 -> 790 ;
791 [label="age_number <= 25.0\ngini = 0.35\nsamples = 106\nvalue = [24, 82]\nclass = 1", fillcolor="#73baed"] ;
783 -> 791 ;
792 [label="sex_Male <= 0.5\ngini = 0.436\nsamples = 28\nvalue = [9, 19]\nclass = 1", fillcolor="#97cbf1"] ;
791 -> 792 ;
793 [label="gini = 0.444\nsamples = 3\nvalue = [2, 1]\nclass = 0", fillcolor="#f2c09c"] ;
792 -> 793 ;
794 [label="crime_subtype_Theft <= 0.5\ngini = 0.403\nsamples = 25\nvalue = [7, 18]\nclass = 1", fillcolor="#86c3ef"] ;
792 -> 794 ;
795 [label="crime_subtype_Trafficking <= 0.5\ngini = 0.386\nsamples = 23\nvalue = [6, 17]\nclass = 1", fillcolor="#7fc0ee"] ;
794 -> 795 ;
796 [label="gini = 0.0\nsamples = 3\nvalue = [0, 3]\nclass = 1", fillcolor="#399de5"] ;
795 -> 796 ;
797 [label="gini = 0.42\nsamples = 20\nvalue = [6, 14]\nclass = 1", fillcolor="#8ec7f0"] ;
795 -> 797 ;
798 [label="gini = 0.5\nsamples = 2\nvalue = [1, 1]\nclass = 0", fillcolor="#ffffff"] ;
794 -> 798 ;
799 [label="crime_subtype_Vandalism <= 0.5\ngini = 0.311\nsamples = 78\nvalue = [15, 63]\nclass = 1", fillcolor="#68b4eb"] ;
791 -> 799 ;
800 [label="crime_type_Property <= 0.5\ngini = 0.298\nsamples = 77\nvalue = [14, 63]\nclass = 1", fillcolor="#65b3eb"] ;
799 -> 800 ;
801 [label="sex_Female <= 0.5\ngini = 0.278\nsamples = 72\nvalue = [12, 60]\nclass = 1", fillcolor="#61b1ea"] ;
800 -> 801 ;
802 [label="gini = 0.237\nsamples = 51\nvalue = [7, 44]\nclass = 1", fillcolor="#58ade9"] ;
801 -> 802 ;
803 [label="crime_type_Drug <= 0.5\ngini = 0.363\nsamples = 21\nvalue = [5, 16]\nclass = 1", fillcolor="#77bced"] ;
801 -> 803 ;
804 [label="gini = 0.0\nsamples = 1\nvalue = [0, 1]\nclass = 1", fillcolor="#399de5"] ;
803 -> 804 ;
805 [label="gini = 0.375\nsamples = 20\nvalue = [5, 15]\nclass = 1", fillcolor="#7bbeee"] ;
803 -> 805 ;
806 [label="gini = 0.48\nsamples = 5\nvalue = [2, 3]\nclass = 1", fillcolor="#bddef6"] ;
800 -> 806 ;
807 [label="gini = 0.0\nsamples = 1\nvalue = [1, 0]\nclass = 0", fillcolor="#e58139"] ;
799 -> 807 ;
808 [label="gini = 0.0\nsamples = 1\nvalue = [1, 0]\nclass = 0", fillcolor="#e58139"] ;
780 -> 808 ;
809 [label="sex_Female <= 0.5\ngini = 0.444\nsamples = 3\nvalue = [2, 1]\nclass = 0", fillcolor="#f2c09c"] ;
779 -> 809 ;
810 [label="gini = 0.0\nsamples = 2\nvalue = [2, 0]\nclass = 0", fillcolor="#e58139"] ;
809 -> 810 ;
811 [label="gini = 0.0\nsamples = 1\nvalue = [0, 1]\nclass = 1", fillcolor="#399de5"] ;
809 -> 811 ;
812 [label="gini = 0.0\nsamples = 22\nvalue = [0, 22]\nclass = 1", fillcolor="#399de5"] ;
778 -> 812 ;
813 [label="crime_subtype_Trafficking <= 0.5\ngini = 0.42\nsamples = 193\nvalue = [58, 135]\nclass = 1", fillcolor="#8ec7f0"] ;
777 -> 813 ;
814 [label="crime_subtype_Burglary <= 0.5\ngini = 0.381\nsamples = 164\nvalue = [42, 122]\nclass = 1", fillcolor="#7dbfee"] ;
813 -> 814 ;
815 [label="crime_subtype_OWI <= 0.5\ngini = 0.33\nsamples = 115\nvalue = [24, 91]\nclass = 1", fillcolor="#6db7ec"] ;
814 -> 815 ;
816 [label="crime_subtype_Other Public Order <= 0.5\ngini = 0.287\nsamples = 98\nvalue = [17, 81]\nclass = 1", fillcolor="#63b2ea"] ;
815 -> 816 ;
817 [label="crime_subtype_Theft <= 0.5\ngini = 0.266\nsamples = 95\nvalue = [15, 80]\nclass = 1", fillcolor="#5eafea"] ;
816 -> 817 ;
818 [label="race_ethnicity_American Native <= 0.5\ngini = 0.182\nsamples = 69\nvalue = [7, 62]\nclass = 1", fillcolor="#4fa8e8"] ;
817 -> 818 ;
819 [label="sex_Male <= 0.5\ngini = 0.161\nsamples = 68\nvalue = [6, 62]\nclass = 1", fillcolor="#4ca6e8"] ;
818 -> 819 ;
820 [label="gini = 0.0\nsamples = 29\nvalue = [0, 29]\nclass = 1", fillcolor="#399de5"] ;
819 -> 820 ;
821 [label="crime_subtype_Forgery/Fraud <= 0.5\ngini = 0.26\nsamples = 39\nvalue = [6, 33]\nclass = 1", fillcolor="#5dafea"] ;
819 -> 821 ;
822 [label="crime_subtype_Flight/Escape <= 0.5\ngini = 0.111\nsamples = 34\nvalue = [2, 32]\nclass = 1", fillcolor="#45a3e7"] ;
821 -> 822 ;
823 [label="crime_subtype_Drug Possession <= 0.5\ngini = 0.062\nsamples = 31\nvalue = [1, 30]\nclass = 1", fillcolor="#40a0e6"] ;
822 -> 823 ;
824 [label="gini = 0.0\nsamples = 20\nvalue = [0, 20]\nclass = 1", fillcolor="#399de5"] ;
823 -> 824 ;
825 [label="gini = 0.165\nsamples = 11\nvalue = [1, 10]\nclass = 1", fillcolor="#4da7e8"] ;
823 -> 825 ;
826 [label="race_ethnicity_White <= 0.5\ngini = 0.444\nsamples = 3\nvalue = [1, 2]\nclass = 1", fillcolor="#9ccef2"] ;
822 -> 826 ;
827 [label="gini = 0.0\nsamples = 1\nvalue = [0, 1]\nclass = 1", fillcolor="#399de5"] ;
826 -> 827 ;
828 [label="gini = 0.5\nsamples = 2\nvalue = [1, 1]\nclass = 0", fillcolor="#ffffff"] ;
826 -> 828 ;
829 [label="age_enc <= 0.5\ngini = 0.32\nsamples = 5\nvalue = [4, 1]\nclass = 0", fillcolor="#eca06a"] ;
821 -> 829 ;
830 [label="gini = 0.0\nsamples = 2\nvalue = [2, 0]\nclass = 0", fillcolor="#e58139"] ;
829 -> 830 ;
831 [label="gini = 0.444\nsamples = 3\nvalue = [2, 1]\nclass = 0", fillcolor="#f2c09c"] ;
829 -> 831 ;
832 [label="gini = 0.0\nsamples = 1\nvalue = [1, 0]\nclass = 0", fillcolor="#e58139"] ;
818 -> 832 ;
833 [label="age_number <= 25.0\ngini = 0.426\nsamples = 26\nvalue = [8, 18]\nclass = 1", fillcolor="#91c9f1"] ;
817 -> 833 ;
834 [label="race_ethnicity_White <= 0.5\ngini = 0.153\nsamples = 12\nvalue = [1, 11]\nclass = 1", fillcolor="#4ba6e7"] ;
833 -> 834 ;
835 [label="gini = 0.0\nsamples = 1\nvalue = [0, 1]\nclass = 1", fillcolor="#399de5"] ;
834 -> 835 ;
836 [label="gini = 0.165\nsamples = 11\nvalue = [1, 10]\nclass = 1", fillcolor="#4da7e8"] ;
834 -> 836 ;
837 [label="sex_Male <= 0.5\ngini = 0.5\nsamples = 14\nvalue = [7, 7]\nclass = 0", fillcolor="#ffffff"] ;
833 -> 837 ;
838 [label="gini = 0.375\nsamples = 4\nvalue = [3, 1]\nclass = 0", fillcolor="#eeab7b"] ;
837 -> 838 ;
839 [label="gini = 0.48\nsamples = 10\nvalue = [4, 6]\nclass = 1", fillcolor="#bddef6"] ;
837 -> 839 ;
840 [label="age_enc <= 0.5\ngini = 0.444\nsamples = 3\nvalue = [2, 1]\nclass = 0", fillcolor="#f2c09c"] ;
816 -> 840 ;
841 [label="gini = 0.0\nsamples = 1\nvalue = [0, 1]\nclass = 1", fillcolor="#399de5"] ;
840 -> 841 ;
842 [label="gini = 0.0\nsamples = 2\nvalue = [2, 0]\nclass = 0", fillcolor="#e58139"] ;
840 -> 842 ;
843 [label="sex_Male <= 0.5\ngini = 0.484\nsamples = 17\nvalue = [7, 10]\nclass = 1", fillcolor="#c4e2f7"] ;
815 -> 843 ;
844 [label="gini = 0.0\nsamples = 2\nvalue = [2, 0]\nclass = 0", fillcolor="#e58139"] ;
843 -> 844 ;
845 [label="race_ethnicity_White <= 0.5\ngini = 0.444\nsamples = 15\nvalue = [5, 10]\nclass = 1", fillcolor="#9ccef2"] ;
843 -> 845 ;
846 [label="gini = 0.0\nsamples = 2\nvalue = [0, 2]\nclass = 1", fillcolor="#399de5"] ;
845 -> 846 ;
847 [label="gini = 0.473\nsamples = 13\nvalue = [5, 8]\nclass = 1", fillcolor="#b5daf5"] ;
845 -> 847 ;
848 [label="sex_Male <= 0.5\ngini = 0.465\nsamples = 49\nvalue = [18, 31]\nclass = 1", fillcolor="#acd6f4"] ;
814 -> 848 ;
849 [label="gini = 0.0\nsamples = 4\nvalue = [0, 4]\nclass = 1", fillcolor="#399de5"] ;
848 -> 849 ;
